{"type":"LSTM","options":{"inputSize":53,"inputRange":53,"hiddenLayers":[20,20],"outputSize":53,"decayRate":0.999,"smoothEps":1e-8,"regc":0.000001,"clipval":5,"maxPredictionLength":100,"dataFormatter":{"values":["You suck","insult","I hate you","You're a dumbass","I hope you stub your toe","I feel pain everytime i hear you","Fucking idiot","Loser","You're worthless, and nobody likes you.","I dislike you","You should die, kill yourself","I can't stand being near you","You're trash","Give up","You make me sick","You're actually dumb","Are you braindead","Are you retarded","bastard","asshole","You have 0 IQ","you have 0 iq","You have 100 IQ","you have 100 iq","Actual scum of the earth","What is wrong with you","Worthless human being","You're actually terrible","Degen","Degenerate","You're a terrible human being","Damn, that's crazy. Did I ask?","any askers?","who asked?","You're so dumb","Bad","Pile of toxic waste","You're nice","compliment","I really like you","Maybe you aren't so bad","You're a really cool person","I really like your hair","Good job on following all your aspirations!","I'm so proud of you","That's great! I'm glad to hear it","I like you","You're a great person","I'm glad I know you","Never give up, keep trying","Sick!","you have 200 iq","you have 2000 iq","You have 2000 IQ","You have 200 IQ","I think you're a great human being","You're so chill","You're actually a cool person","I love how patient you are","Asking you questions is amazing"],"indexTable":{"0":32,"1":35,"2":49,"Y":0,"o":1,"u":2," ":3,"s":4,"c":5,"k":6,"i":7,"n":8,"l":9,"t":10,"I":11,"h":12,"a":13,"e":14,"y":15,"'":16,"r":17,"d":18,"m":19,"b":20,"p":21,"f":22,"v":23,"F":24,"g":25,"L":26,"w":27,",":28,".":29,"G":30,"A":31,"Q":33,"q":34,"W":36,"D":37,"z":38,"?":39,"B":40,"P":41,"x":42,"M":43,"j":44,"!":45,"T":46,"N":47,"S":48,"stop-input":50,"start-output":51,"unrecognized":52},"characterTable":{"0":"Y","1":"o","2":"u","3":" ","4":"s","5":"c","6":"k","7":"i","8":"n","9":"l","10":"t","11":"I","12":"h","13":"a","14":"e","15":"y","16":"'","17":"r","18":"d","19":"m","20":"b","21":"p","22":"f","23":"v","24":"F","25":"g","26":"L","27":"w","28":",","29":".","30":"G","31":"A","32":"0","33":"Q","34":"q","35":"1","36":"W","37":"D","38":"z","39":"?","40":"B","41":"P","42":"x","43":"M","44":"j","45":"!","46":"T","47":"N","48":"S","49":"2","50":null,"51":null,"52":null},"characters":["Y","o","u"," ","s","c","k","i","n","l","t","I","h","a","e","y","'","r","d","m","b","p","f","v","F","g","L","w",",",".","G","A","0","Q","q","1","W","D","z","?","B","P","x","M","j","!","T","N","S","2","stop-input","start-output","unrecognized"],"specialIndexes":[50,51,52]}},"input":{"rows":54,"columns":53,"weights":{"0":-2.2538795471191406,"1":1.1859415769577026,"2":0.26689767837524414,"3":-0.5471450090408325,"4":-0.009414298459887505,"5":-0.955280601978302,"6":1.6870518922805786,"7":-0.11298514902591705,"8":-3.472353458404541,"9":-0.8507022261619568,"10":-2.5916895866394043,"11":0.1762477159500122,"12":1.7254149913787842,"13":-1.4780082702636719,"14":0.5040401220321655,"15":-1.8594316244125366,"16":-0.7097111344337463,"17":-1.2628083229064941,"18":-0.5599961280822754,"19":-0.6957000494003296,"20":1.7557728290557861,"21":-0.11753904819488525,"22":0.0893152579665184,"23":1.3147400617599487,"24":0.20887787640094757,"25":0.7656589150428772,"26":-0.3859122395515442,"27":-2.284857749938965,"28":0.7732955813407898,"29":-2.302475690841675,"30":-0.1814837008714676,"31":-2.550920248031616,"32":-0.8251222968101501,"33":-1.7701351642608643,"34":-1.5562167167663574,"35":-1.3254337310791016,"36":0.18833087384700775,"37":-0.5231751203536987,"38":-0.9091335535049438,"39":-0.929764449596405,"40":-4.717031955718994,"41":0.49554190039634705,"42":2.018656015396118,"43":1.1447676420211792,"44":0.9454867839813232,"45":-0.5977663397789001,"46":-0.6902996301651001,"47":-0.7798422574996948,"48":1.7240158319473267,"49":-3.901547431945801,"50":2.9072513580322266,"51":2.4506359100341797,"52":-1.4877066612243652,"53":-2.5759758949279785,"54":1.9209083318710327,"55":-3.4608232975006104,"56":0.8374830484390259,"57":3.169767379760742,"58":-0.9289109110832214,"59":1.18422532081604,"60":0.8694145679473877,"61":5.682910442352295,"62":-4.2830095291137695,"63":0.14269055426120758,"64":-0.4844070076942444,"65":6.132326126098633,"66":1.604414463043213,"67":3.8891870975494385,"68":-1.9283301830291748,"69":2.602375030517578,"70":0.6850447058677673,"71":-2.507566452026367,"72":1.7853118181228638,"73":0.38997089862823486,"74":8.753151893615723,"75":-1.9403773546218872,"76":1.9147080183029175,"77":-1.5619196891784668,"78":-0.20229755342006683,"79":1.4332315921783447,"80":-0.4908769726753235,"81":-5.9995903968811035,"82":-1.1298803091049194,"83":-3.577824592590332,"84":0.2887740135192871,"85":4.121979713439941,"86":3.8232421875,"87":2.3064334392547607,"88":-0.055616091936826706,"89":-0.37473100423812866,"90":3.253605604171753,"91":3.059842109680176,"92":1.1540130376815796,"93":0.7517536878585815,"94":-1.1024140119552612,"95":-3.3683342933654785,"96":6.443962574005127,"97":1.6887727975845337,"98":-0.7158383131027222,"99":2.670975923538208,"100":-1.3510205745697021,"101":-1.4458286762237549,"102":5.124239921569824,"103":-6.040928363800049,"104":-5.5371599197387695,"105":-1.014704704284668,"106":0.0717710554599762,"107":0.6729349493980408,"108":-3.1203627586364746,"109":-0.4988458752632141,"110":-0.658771812915802,"111":1.112593173980713,"112":-1.3814432621002197,"113":0.5859891772270203,"114":0.011565875262022018,"115":3.5348987579345703,"116":-3.076045513153076,"117":-1.8453130722045898,"118":2.5131587982177734,"119":-1.9896482229232788,"120":2.5527148246765137,"121":-2.249021053314209,"122":-2.9401333332061768,"123":-0.3067544996738434,"124":0.32124385237693787,"125":0.4683682918548584,"126":1.2014507055282593,"127":-3.393644332885742,"128":-1.4308606386184692,"129":0.6646780967712402,"130":1.4393739700317383,"131":-0.3741925060749054,"132":2.086845636367798,"133":1.6911394596099854,"134":1.6496630907058716,"135":-1.6437715291976929,"136":1.6580942869186401,"137":-0.5086595416069031,"138":-1.1819897890090942,"139":4.525309085845947,"140":-0.6149063110351562,"141":0.5166921615600586,"142":0.11143370717763901,"143":0.03741336986422539,"144":-2.41640567779541,"145":-1.7242337465286255,"146":-2.126838207244873,"147":1.0482434034347534,"148":0.5270552039146423,"149":0.40801069140434265,"150":1.9371415376663208,"151":-0.446017861366272,"152":0.7698908448219299,"153":-2.0534088611602783,"154":3.554168224334717,"155":-2.567640781402588,"156":1.2436001300811768,"157":3.885925054550171,"158":3.5381531715393066,"159":1.5187246799468994,"160":-1.5579763650894165,"161":-1.4083566665649414,"162":0.24831484258174896,"163":0.23195496201515198,"164":2.0522732734680176,"165":2.4824695587158203,"166":0.967121422290802,"167":3.040268659591675,"168":-1.6260008811950684,"169":1.6320810317993164,"170":0.6174608469009399,"171":0.5038398504257202,"172":-0.5321640968322754,"173":-2.4672675132751465,"174":2.890941858291626,"175":-1.0685940980911255,"176":0.48192885518074036,"177":0.08104457706212997,"178":-2.8648838996887207,"179":-3.429699420928955,"180":4.101482391357422,"181":-1.385392189025879,"182":1.2118490934371948,"183":-1.2297154664993286,"184":0.8848341107368469,"185":-0.44189998507499695,"186":3.054135322570801,"187":-3.2667553424835205,"188":0.8533490896224976,"189":2.4276020526885986,"190":-3.0504305362701416,"191":-3.3908517360687256,"192":-2.3445229530334473,"193":1.7120081186294556,"194":0.37281936407089233,"195":-1.8919321298599243,"196":1.124936580657959,"197":-1.6622343063354492,"198":2.8520383834838867,"199":1.542515516281128,"200":-0.038571685552597046,"201":0.980150043964386,"202":3.7051079273223877,"203":1.948325514793396,"204":-1.02895987033844,"205":1.9003844261169434,"206":-0.5665603280067444,"207":1.0403095483779907,"208":2.9946815967559814,"209":-2.3947460651397705,"210":-3.438978433609009,"211":-0.3487889766693115,"212":-1.123802900314331,"213":2.217907667160034,"214":-0.06319335848093033,"215":-1.4473159313201904,"216":0.816274106502533,"217":0.2080925852060318,"218":2.498641014099121,"219":1.1227672100067139,"220":0.02900957688689232,"221":0.34629908204078674,"222":-2.881786823272705,"223":-1.7885671854019165,"224":3.415586471557617,"225":0.9233831763267517,"226":1.3202062845230103,"227":-2.896308183670044,"228":0.24401432275772095,"229":2.012068033218384,"230":1.0115032196044922,"231":-0.9084351658821106,"232":-0.874804675579071,"233":3.677198886871338,"234":-0.9425922632217407,"235":1.0385838747024536,"236":0.7345331311225891,"237":0.0856798067688942,"238":1.0619522333145142,"239":-0.48389557003974915,"240":-1.2526884078979492,"241":-1.7402609586715698,"242":-2.5206005573272705,"243":0.727319061756134,"244":1.9561721086502075,"245":-3.4737985134124756,"246":-1.1533206701278687,"247":-0.7470715045928955,"248":-0.6150826215744019,"249":0.3050922751426697,"250":-0.6031203269958496,"251":3.0759787559509277,"252":-2.6887924671173096,"253":1.0096073150634766,"254":0.14902988076210022,"255":2.855894088745117,"256":5.53209924697876,"257":0.13287414610385895,"258":-0.578941822052002,"259":1.0576870441436768,"260":4.90382719039917,"261":1.181276798248291,"262":1.0079890489578247,"263":-0.41725456714630127,"264":-0.5479758977890015,"265":-5.070695400238037,"266":-0.12539097666740417,"267":4.100271701812744,"268":2.4900765419006348,"269":-1.912166714668274,"270":-5.806681156158447,"271":-5.767172336578369,"272":-0.5694049596786499,"273":1.6097041368484497,"274":-0.541837215423584,"275":-0.6729738712310791,"276":0.7455193996429443,"277":-4.096083641052246,"278":4.700525283813477,"279":-0.9528821110725403,"280":1.0499763488769531,"281":-1.864315152168274,"282":0.7647943496704102,"283":2.4524216651916504,"284":1.5334442853927612,"285":3.4420838356018066,"286":0.8607745170593262,"287":3.897815227508545,"288":-0.23678043484687805,"289":0.8772220015525818,"290":-7.276178359985352,"291":1.6039228439331055,"292":-2.934972047805786,"293":4.714850425720215,"294":2.716057300567627,"295":-2.9011709690093994,"296":2.1366658210754395,"297":0.003774256445467472,"298":-1.495219111442566,"299":-2.4911532402038574,"300":-4.372119903564453,"301":4.083497524261475,"302":1.2202575206756592,"303":3.0660767555236816,"304":1.3030903339385986,"305":-1.2680305242538452,"306":-4.8422465324401855,"307":-2.1305038928985596,"308":-2.076375722885132,"309":-1.3203283548355103,"310":-2.1078970432281494,"311":0.8366193771362305,"312":0.24058277904987335,"313":-3.2123138904571533,"314":2.6037187576293945,"315":1.448345422744751,"316":-0.5698999762535095,"317":1.4600051641464233,"318":0.01763111911714077,"319":-3.0696053504943848,"320":6.112025260925293,"321":3.4757654666900635,"322":4.506786823272705,"323":0.9234938621520996,"324":-7.729214668273926,"325":-2.2888755798339844,"326":-2.9268500804901123,"327":1.8227370977401733,"328":-1.063285231590271,"329":-4.8212056159973145,"330":3.2070987224578857,"331":3.738938570022583,"332":-0.27919304370880127,"333":-1.3475301265716553,"334":0.1981097161769867,"335":4.1901535987854,"336":6.337777137756348,"337":-2.0053746700286865,"338":-2.9328200817108154,"339":3.937368154525757,"340":2.4462196826934814,"341":-0.38744258880615234,"342":-5.096249580383301,"343":-0.14720427989959717,"344":3.520747423171997,"345":1.0577003955841064,"346":-6.247049331665039,"347":2.473318338394165,"348":1.0449116230010986,"349":5.329280376434326,"350":0.5186564326286316,"351":-0.3678766191005707,"352":7.035175323486328,"353":0.42987796664237976,"354":5.034914970397949,"355":-0.7332543730735779,"356":-1.7448707818984985,"357":2.8873610496520996,"358":0.9502262473106384,"359":6.388810157775879,"360":-1.2152414321899414,"361":-5.408653736114502,"362":-2.747102975845337,"363":2.64397931098938,"364":1.2377008199691772,"365":-1.1153900623321533,"366":5.4294047355651855,"367":3.093975305557251,"368":-4.141373634338379,"369":-0.6073331236839294,"370":3.5475845336914062,"371":2.2277297973632812,"372":-2.7581405639648438,"373":7.551857948303223,"374":-1.7139430046081543,"375":-6.647455215454102,"376":-3.813772439956665,"377":-0.0037413390818983316,"378":-1.8738555908203125,"379":0.6088443994522095,"380":-8.70980453491211,"381":2.3159019947052,"382":2.2636711597442627,"383":1.940772533416748,"384":-2.7217929363250732,"385":-7.808347225189209,"386":-2.2757232189178467,"387":-0.2679334580898285,"388":-5.926164150238037,"389":-6.111686706542969,"390":-5.311232089996338,"391":-6.027551651000977,"392":-5.331164360046387,"393":6.295355796813965,"394":6.815730571746826,"395":1.6280704736709595,"396":-1.9476768970489502,"397":-5.802029132843018,"398":-0.10931957513093948,"399":6.046450614929199,"400":2.7653841972351074,"401":10.504067420959473,"402":-7.327128887176514,"403":-3.652851104736328,"404":-2.0834567546844482,"405":-0.5842209458351135,"406":-1.2258113622665405,"407":3.319669723510742,"408":-1.2903962135314941,"409":1.2713463306427002,"410":-1.5779063701629639,"411":-1.823714256286621,"412":-0.25254926085472107,"413":-1.656071662902832,"414":-6.144862651824951,"415":-0.17544272541999817,"416":-1.3300707340240479,"417":5.796750068664551,"418":0.6649113893508911,"419":-5.153491973876953,"420":-1.3688290119171143,"421":12.852813720703125,"422":0.42180395126342773,"423":0.9674379229545593,"424":1.374703049659729,"425":-0.0513627789914608,"426":-3.2845206260681152,"427":-1.8821790218353271,"428":-1.636736512184143,"429":2.775696277618408,"430":-0.6557442545890808,"431":1.8866513967514038,"432":0.9978295564651489,"433":2.473254919052124,"434":-1.2120271921157837,"435":2.8237297534942627,"436":1.7057188749313354,"437":-2.1790482997894287,"438":1.5409715175628662,"439":-1.2769194841384888,"440":0.9777673482894897,"441":1.0847326517105103,"442":0.6470744609832764,"443":-1.7580909729003906,"444":0.6951878666877747,"445":-3.5500142574310303,"446":-0.6004610061645508,"447":-4.258068084716797,"448":-1.3341729640960693,"449":-0.5299955010414124,"450":-1.9571824073791504,"451":0.9716934561729431,"452":-0.8319623470306396,"453":-0.18911607563495636,"454":0.03082328289747238,"455":-1.9438153505325317,"456":-3.1374893188476562,"457":2.057525634765625,"458":-0.05939001962542534,"459":0.13737645745277405,"460":0.4426378011703491,"461":-0.05572066828608513,"462":-4.659756183624268,"463":-0.7802596688270569,"464":-1.1603337526321411,"465":3.629481315612793,"466":1.9835209846496582,"467":3.3684918880462646,"468":3.6634790897369385,"469":1.9541741609573364,"470":2.4869635105133057,"471":-1.3907058238983154,"472":1.6010252237319946,"473":0.2426939159631729,"474":-1.724055290222168,"475":2.326995849609375,"476":0.2208070456981659,"477":-2.921414852142334,"478":-1.0519353151321411,"479":2.538804531097412,"480":0.2530873417854309,"481":-0.28379005193710327,"482":-3.7769036293029785,"483":1.3527159690856934,"484":-2.788357973098755,"485":-1.4350963830947876,"486":-4.1481146812438965,"487":2.4233455657958984,"488":1.1569709777832031,"489":1.5031160116195679,"490":0.7369034290313721,"491":-0.4316781461238861,"492":0.7966799139976501,"493":-0.9734835624694824,"494":1.0068962574005127,"495":0.5016152262687683,"496":0.8301737904548645,"497":0.2402159720659256,"498":1.4615062475204468,"499":0.944019615650177,"500":1.3709142208099365,"501":-0.038861263543367386,"502":-1.7026786804199219,"503":-0.7811183929443359,"504":0.19569715857505798,"505":-0.06558125466108322,"506":1.4195773601531982,"507":-0.9299328923225403,"508":-1.487281084060669,"509":2.9991211891174316,"510":0.48457071185112,"511":2.186727523803711,"512":-1.5368199348449707,"513":-2.1637415885925293,"514":-1.33642578125,"515":5.8640289306640625,"516":-1.978043556213379,"517":-0.031932197511196136,"518":-2.5443947315216064,"519":-1.0950227975845337,"520":-0.15453365445137024,"521":-0.2987559139728546,"522":0.6848973631858826,"523":-4.2314372062683105,"524":1.3155251741409302,"525":-1.204658031463623,"526":-0.26088881492614746,"527":-1.8826051950454712,"528":-3.5501866340637207,"529":-0.10233321785926819,"530":0.9804879426956177,"531":-0.564175009727478,"532":-0.4070315957069397,"533":-3.591144323348999,"534":3.467501163482666,"535":1.5135478973388672,"536":0.10473302751779556,"537":-0.6122235655784607,"538":-1.039380431175232,"539":-0.18102872371673584,"540":2.0079197883605957,"541":-2.392503261566162,"542":0.6770292520523071,"543":-0.09254735708236694,"544":-0.1289561241865158,"545":-2.296682834625244,"546":2.2719051837921143,"547":-2.1257729530334473,"548":-0.3461623787879944,"549":-1.0075137615203857,"550":-0.2225647121667862,"551":0.6239669919013977,"552":-0.34646937251091003,"553":1.6261948347091675,"554":5.706158638000488,"555":1.6086596250534058,"556":3.4494762420654297,"557":-2.570505380630493,"558":-0.00570537569001317,"559":-1.4930766820907593,"560":-1.054766297340393,"561":-0.8741778135299683,"562":-0.7783887386322021,"563":-4.126719951629639,"564":-2.055144786834717,"565":2.9636614322662354,"566":0.3494715392589569,"567":-1.4180028438568115,"568":-0.2552001178264618,"569":2.2442924976348877,"570":-3.5853090286254883,"571":2.3152670860290527,"572":2.5398731231689453,"573":-0.16256070137023926,"574":-0.9865355491638184,"575":-1.9915751218795776,"576":2.3083438873291016,"577":3.167557954788208,"578":1.1346328258514404,"579":0.6135993003845215,"580":1.5622000694274902,"581":-0.9820592403411865,"582":0.3463846743106842,"583":-2.1973459720611572,"584":-2.0107460021972656,"585":0.6252736449241638,"586":-1.6337233781814575,"587":-0.8771157264709473,"588":-3.2005090713500977,"589":-2.331693410873413,"590":-0.31669098138809204,"591":-0.6290295720100403,"592":2.3626551628112793,"593":1.3906883001327515,"594":1.0461865663528442,"595":1.3739209175109863,"596":0.03879765048623085,"597":-1.2438167333602905,"598":-1.881211519241333,"599":3.1491992473602295,"600":0.8525434136390686,"601":1.8690080642700195,"602":2.6012418270111084,"603":0.2137065976858139,"604":-2.3651161193847656,"605":-0.48473861813545227,"606":1.3153208494186401,"607":2.7986321449279785,"608":-0.11494861543178558,"609":-0.9408485889434814,"610":-0.3553401529788971,"611":1.553000569343567,"612":-2.5513980388641357,"613":-3.3537049293518066,"614":1.267195701599121,"615":-1.0016103982925415,"616":1.689338207244873,"617":-2.1207540035247803,"618":4.761139392852783,"619":1.5558940172195435,"620":-1.3004151582717896,"621":0.7639920115470886,"622":-2.0062718391418457,"623":2.221142530441284,"624":0.3279776871204376,"625":-0.23296765983104706,"626":-0.23215453326702118,"627":-2.5694143772125244,"628":-2.904148578643799,"629":-1.3267779350280762,"630":-1.6992601156234741,"631":-2.500847101211548,"632":0.16833418607711792,"633":0.9188715815544128,"634":-1.538317084312439,"635":0.20849217474460602,"636":2.727534055709839,"637":0.4608015716075897,"638":4.951047897338867,"639":0.46757903695106506,"640":2.167285919189453,"641":5.458288192749023,"642":3.4741735458374023,"643":-6.371261119842529,"644":-3.7539217472076416,"645":0.39963972568511963,"646":-2.062525987625122,"647":-0.1455947756767273,"648":-4.319572448730469,"649":5.095492362976074,"650":-0.530493438243866,"651":-2.246546745300293,"652":-1.092894434928894,"653":-3.72886061668396,"654":1.3350828886032104,"655":-2.615229606628418,"656":-2.4108595848083496,"657":0.21776027977466583,"658":5.589142799377441,"659":-3.039750814437866,"660":-1.1150188446044922,"661":-5.6123247146606445,"662":2.824432611465454,"663":-0.28209415078163147,"664":-3.200943946838379,"665":-2.6839661598205566,"666":6.046820640563965,"667":-0.6901746988296509,"668":2.3750762939453125,"669":-3.566326141357422,"670":-0.717434823513031,"671":2.137643814086914,"672":2.437929153442383,"673":-0.0022158222272992134,"674":1.8524094820022583,"675":5.31549072265625,"676":-1.3528226613998413,"677":0.9538227915763855,"678":4.539003372192383,"679":-7.695623397827148,"680":-0.7376890182495117,"681":6.442111015319824,"682":-3.358269214630127,"683":2.4754676818847656,"684":2.056429147720337,"685":-0.9635179042816162,"686":3.7040083408355713,"687":1.151133418083191,"688":1.3702770471572876,"689":1.2982491254806519,"690":0.3108777105808258,"691":0.12559038400650024,"692":3.9579238891601562,"693":-0.48509886860847473,"694":2.933446168899536,"695":1.8449302911758423,"696":5.4541401863098145,"697":-1.2630386352539062,"698":5.429586887359619,"699":4.91587495803833,"700":-0.03565089404582977,"701":-8.211668014526367,"702":-4.409489154815674,"703":4.090347766876221,"704":1.3245832920074463,"705":2.3732175827026367,"706":0.49134561419487,"707":-1.9394210577011108,"708":9.524873733520508,"709":-0.7590540051460266,"710":-3.8423259258270264,"711":1.35243558883667,"712":0.5762357115745544,"713":2.779923915863037,"714":0.7518221735954285,"715":-5.664618968963623,"716":-3.310025691986084,"717":-1.2029858827590942,"718":3.610696792602539,"719":-4.178407192230225,"720":0.5572448968887329,"721":-3.7965779304504395,"722":-3.236375093460083,"723":2.57267689704895,"724":-0.108049176633358,"725":0.3669958710670471,"726":-7.449852466583252,"727":0.5275553464889526,"728":0.9919037818908691,"729":1.356095552444458,"730":-4.706692695617676,"731":-0.13420315086841583,"732":-5.612967491149902,"733":-0.5667353868484497,"734":0.31593918800354004,"735":1.45575749874115,"736":-1.0439443588256836,"737":-2.88258695602417,"738":1.3121349811553955,"739":0.46698975563049316,"740":-0.5252851843833923,"741":0.8763919472694397,"742":-1.3061071634292603,"743":0.5354872345924377,"744":-1.1507617235183716,"745":-1.9715256690979004,"746":-1.596778154373169,"747":0.051078230142593384,"748":1.966912031173706,"749":-4.257871627807617,"750":0.2272498458623886,"751":3.70861554145813,"752":2.531538724899292,"753":-3.4036998748779297,"754":0.9638737440109253,"755":-1.088441252708435,"756":-2.7503814697265625,"757":1.1793036460876465,"758":-0.9086525440216064,"759":-3.243345260620117,"760":1.9911783933639526,"761":4.796603679656982,"762":2.8010294437408447,"763":2.340369939804077,"764":-0.4717821180820465,"765":2.7691075801849365,"766":3.56998872756958,"767":-2.0442755222320557,"768":0.19922852516174316,"769":1.5037091970443726,"770":-0.3912797272205353,"771":2.6245832443237305,"772":-1.326587438583374,"773":0.8258940577507019,"774":2.3549864292144775,"775":3.3083138465881348,"776":4.0030670166015625,"777":0.5305969715118408,"778":2.022613048553467,"779":-0.05881097912788391,"780":-0.3820854723453522,"781":-1.2083300352096558,"782":0.8050389289855957,"783":-1.6287497282028198,"784":-3.5663554668426514,"785":-0.6304460167884827,"786":1.6610784530639648,"787":1.4015480279922485,"788":-3.1110174655914307,"789":-0.863779604434967,"790":1.1742521524429321,"791":1.7363101243972778,"792":0.956109881401062,"793":0.14978624880313873,"794":2.159057378768921,"795":-1.558876633644104,"796":1.0354442596435547,"797":0.1484687775373459,"798":-0.18176214396953583,"799":-4.096655368804932,"800":3.0295326709747314,"801":-3.657147169113159,"802":-0.2707991302013397,"803":-1.8876515626907349,"804":-2.1352336406707764,"805":-1.1602448225021362,"806":-1.467821478843689,"807":-1.2875012159347534,"808":-0.4240400493144989,"809":-1.051707148551941,"810":0.12625257670879364,"811":0.18531456589698792,"812":-0.3034851849079132,"813":-0.43758460879325867,"814":-0.1823427975177765,"815":1.2073994874954224,"816":-0.49632424116134644,"817":0.5453251004219055,"818":-0.02141144499182701,"819":1.7783249616622925,"820":-1.5460917949676514,"821":1.8150047063827515,"822":0.29727283120155334,"823":2.9478914737701416,"824":-2.25610089302063,"825":1.4477442502975464,"826":5.906475067138672,"827":0.9330316185951233,"828":2.9528768062591553,"829":-1.565430998802185,"830":-0.018582792952656746,"831":2.4717366695404053,"832":-1.329521656036377,"833":-1.0008209943771362,"834":-0.9459115266799927,"835":-0.013474718667566776,"836":1.5706195831298828,"837":0.5117169618606567,"838":0.97409588098526,"839":-1.6521161794662476,"840":-0.3714083731174469,"841":-1.3680278062820435,"842":1.488949179649353,"843":-0.3668791651725769,"844":-1.9883078336715698,"845":-3.119645595550537,"846":-0.5215036869049072,"847":0.4731273353099823,"848":-3.3016140460968018,"849":-6.763792514801025,"850":-4.46215295791626,"851":3.0653841495513916,"852":0.0499943345785141,"853":-3.3816986083984375,"854":-0.04928933084011078,"855":0.4665091335773468,"856":3.133307933807373,"857":-4.108916282653809,"858":1.032021403312683,"859":1.556347370147705,"860":-0.4515950083732605,"861":-4.931997299194336,"862":-1.1751292943954468,"863":0.9942817091941833,"864":-6.096580505371094,"865":-1.4006906747817993,"866":-4.703124523162842,"867":-0.8343603014945984,"868":5.45308256149292,"869":1.8548587560653687,"870":1.5303559303283691,"871":-3.617849349975586,"872":-0.008252216503024101,"873":3.273984909057617,"874":-2.5691094398498535,"875":0.6478207111358643,"876":-2.6704885959625244,"877":0.7527772188186646,"878":1.4073303937911987,"879":0.4655599892139435,"880":-6.280427932739258,"881":2.867931842803955,"882":-1.3616175651550293,"883":-1.6199769973754883,"884":-1.9321105480194092,"885":-1.6227666139602661,"886":-0.909653902053833,"887":2.240657329559326,"888":-6.759213447570801,"889":-1.8412024974822998,"890":-1.6892714500427246,"891":3.750180959701538,"892":0.4295620620250702,"893":-7.54435396194458,"894":3.7553319931030273,"895":-7.078497409820557,"896":-2.760697364807129,"897":2.132579803466797,"898":1.881709098815918,"899":-2.360077142715454,"900":-3.4236037731170654,"901":-0.28094282746315,"902":-8.91594123840332,"903":-4.352156639099121,"904":-0.699927568435669,"905":-4.825466156005859,"906":-3.3018805980682373,"907":-4.7047295570373535,"908":-3.876941680908203,"909":0.7007563710212708,"910":-3.672936201095581,"911":-0.26209598779678345,"912":0.4780169725418091,"913":4.683409690856934,"914":0.32829049229621887,"915":1.8529506921768188,"916":-0.5520990490913391,"917":9.386985778808594,"918":0.19572916626930237,"919":1.736018180847168,"920":-2.1136183738708496,"921":3.61269211769104,"922":7.623926639556885,"923":-6.709898471832275,"924":2.3571770191192627,"925":-1.530534029006958,"926":3.501962423324585,"927":-1.3389164209365845,"928":-0.249659925699234,"929":3.6639180183410645,"930":3.7411186695098877,"931":-3.0513155460357666,"932":6.036810874938965,"933":3.191147804260254,"934":5.998136043548584,"935":3.133457660675049,"936":3.0784895420074463,"937":-6.306524276733398,"938":-3.3155739307403564,"939":5.6734819412231445,"940":-2.7173283100128174,"941":-0.6494928598403931,"942":-3.94948148727417,"943":-5.348836421966553,"944":-0.5194534063339233,"945":0.2326720952987671,"946":-1.2572168111801147,"947":-2.3526155948638916,"948":1.164978265762329,"949":-6.136373043060303,"950":1.500824213027954,"951":-8.406477928161621,"952":-2.6464614868164062,"953":-4.822025299072266,"954":-1.9647579193115234,"955":0.6725786328315735,"956":-1.0992649793624878,"957":1.2220861911773682,"958":0.4904935657978058,"959":0.33798837661743164,"960":-2.636993169784546,"961":-0.45648837089538574,"962":-0.5478879809379578,"963":1.5119359493255615,"964":-0.2526325583457947,"965":0.14734476804733276,"966":1.721616268157959,"967":-3.852976083755493,"968":1.5376946926116943,"969":-1.3532779216766357,"970":-1.1773285865783691,"971":-2.055717945098877,"972":1.5895106792449951,"973":2.404141902923584,"974":-1.674517035484314,"975":-0.7926766872406006,"976":2.423738718032837,"977":3.1654739379882812,"978":2.8853249549865723,"979":-0.9013336896896362,"980":3.277848958969116,"981":-0.20095938444137573,"982":-2.4216580390930176,"983":-1.3939883708953857,"984":1.9610412120819092,"985":0.5118465423583984,"986":-1.8793116807937622,"987":0.7137676477432251,"988":0.20566193759441376,"989":2.9915199279785156,"990":1.6348590850830078,"991":-1.406400203704834,"992":-1.5936362743377686,"993":0.6369287967681885,"994":-0.8989856839179993,"995":1.6917895078659058,"996":0.04742364585399628,"997":-2.1929314136505127,"998":-0.6859760880470276,"999":0.2535686492919922,"1000":-1.2286609411239624,"1001":-1.4682750701904297,"1002":3.3364651203155518,"1003":-3.5783064365386963,"1004":2.493408441543579,"1005":1.6144102811813354,"1006":3.314093828201294,"1007":-5.120254039764404,"1008":-3.2893450260162354,"1009":-2.2602295875549316,"1010":-2.2948760986328125,"1011":-2.642068862915039,"1012":1.5658766031265259,"1013":-1.1570006608963013,"1014":-3.4257216453552246,"1015":4.1724443435668945,"1016":-0.26850536465644836,"1017":2.1975064277648926,"1018":-2.540466547012329,"1019":-1.180496096611023,"1020":-1.926964282989502,"1021":0.06279727816581726,"1022":-0.22602926194667816,"1023":-0.7176124453544617,"1024":-8.217673301696777,"1025":2.1996214389801025,"1026":-0.7830871939659119,"1027":1.3183667659759521,"1028":5.073272705078125,"1029":-1.1336708068847656,"1030":0.4458061456680298,"1031":2.15492582321167,"1032":1.2543540000915527,"1033":0.6472783088684082,"1034":2.071004629135132,"1035":-4.332594871520996,"1036":1.5276048183441162,"1037":-1.4655485153198242,"1038":3.1212961673736572,"1039":0.42648622393608093,"1040":3.76992130279541,"1041":-4.692237377166748,"1042":4.742371082305908,"1043":1.5483460426330566,"1044":-3.6882736682891846,"1045":-4.727359294891357,"1046":2.360952854156494,"1047":0.6046075820922852,"1048":2.582811117172241,"1049":-0.1713247150182724,"1050":-3.0375635623931885,"1051":-5.152033805847168,"1052":-2.8203940391540527,"1053":0.43068549036979675,"1054":-3.035435199737549,"1055":5.646759510040283,"1056":1.076582908630371,"1057":0.8057990670204163,"1058":-1.830934762954712,"1059":10.786564826965332,"1060":4.860875129699707,"1061":8.648354530334473,"1062":0.452019602060318,"1063":-2.292102098464966,"1064":2.8682451248168945,"1065":5.052460670471191,"1066":5.097694396972656,"1067":-0.9041293859481812,"1068":0.8484138250350952,"1069":-3.864360809326172,"1070":-3.9114890098571777,"1071":2.926440954208374,"1072":-4.4381585121154785,"1073":-2.3755617141723633,"1074":1.6078064441680908,"1075":-2.4191620349884033,"1076":-0.534430980682373,"1077":-0.9651215672492981,"1078":-3.4211277961730957,"1079":-0.5230844020843506,"1080":0.5895090699195862,"1081":1.7586427927017212,"1082":3.807499647140503,"1083":-1.5876139402389526,"1084":-2.1255128383636475,"1085":3.0600640773773193,"1086":4.078452110290527,"1087":0.8846474289894104,"1088":-4.278207302093506,"1089":-8.243218421936035,"1090":0.8869181275367737,"1091":-2.1478946208953857,"1092":-0.0020025172270834446,"1093":-3.328721761703491,"1094":-4.899255752563477,"1095":2.1214792728424072,"1096":-0.4955703318119049,"1097":-4.0200605392456055,"1098":-2.391179084777832,"1099":3.7710094451904297,"1100":-5.827424049377441,"1101":2.2869150638580322,"1102":6.615846633911133,"1103":2.557880401611328,"1104":6.173058032989502,"1105":3.5953447818756104,"1106":-0.39326030015945435,"1107":-0.9458818435668945,"1108":2.288496732711792,"1109":2.133246421813965,"1110":1.7607100009918213,"1111":6.29889440536499,"1112":-0.7930693626403809,"1113":11.562255859375,"1114":8.143356323242188,"1115":-4.978233337402344,"1116":9.879034996032715,"1117":3.986088752746582,"1118":3.6337738037109375,"1119":-1.3808934688568115,"1120":4.065329551696777,"1121":1.6591176986694336,"1122":-4.929138660430908,"1123":-3.308161735534668,"1124":7.051942348480225,"1125":-1.8627420663833618,"1126":2.729274272918701,"1127":1.7943822145462036,"1128":-1.3917094469070435,"1129":-3.270658016204834,"1130":5.360633850097656,"1131":0.563474714756012,"1132":-1.3605669736862183,"1133":-5.701502323150635,"1134":-2.490097761154175,"1135":3.435603618621826,"1136":-1.1990009546279907,"1137":-4.6339616775512695,"1138":0.4285067617893219,"1139":3.4979004859924316,"1140":-5.910371780395508,"1141":-0.3596765100955963,"1142":0.05087145045399666,"1143":4.972667694091797,"1144":9.420491218566895,"1145":-4.386442184448242,"1146":-0.4948105216026306,"1147":0.729019820690155,"1148":2.5486340522766113,"1149":3.6782162189483643,"1150":0.17165006697177887,"1151":0.42779427766799927,"1152":0.6598686575889587,"1153":4.81939697265625,"1154":-2.911480188369751,"1155":2.497058153152466,"1156":5.0748066902160645,"1157":11.824560165405273,"1158":-2.430344820022583,"1159":3.671163320541382,"1160":1.3036350011825562,"1161":7.754053592681885,"1162":2.790484666824341,"1163":0.07564012706279755,"1164":-6.743345737457275,"1165":-0.46902257204055786,"1166":-8.36536693572998,"1167":1.4729926586151123,"1168":0.849509596824646,"1169":3.511666774749756,"1170":0.43920955061912537,"1171":3.5918076038360596,"1172":0.6577299237251282,"1173":12.3781156539917,"1174":3.339479684829712,"1175":10.700139045715332,"1176":0.3498682975769043,"1177":9.788102149963379,"1178":-1.9696754217147827,"1179":-3.358407497406006,"1180":2.2495131492614746,"1181":7.320948123931885,"1182":-3.4013149738311768,"1183":-8.677257537841797,"1184":-0.9576611518859863,"1185":1.654431939125061,"1186":2.095884084701538,"1187":-3.0233945846557617,"1188":2.9258482456207275,"1189":-3.477386951446533,"1190":2.0502266883850098,"1191":2.5614140033721924,"1192":-1.8313243389129639,"1193":-0.1746446043252945,"1194":-3.859889268875122,"1195":-9.330146789550781,"1196":-8.913078308105469,"1197":-0.6401546597480774,"1198":-7.105621337890625,"1199":-1.7677115201950073,"1200":2.84000825881958,"1201":7.177602291107178,"1202":5.665534019470215,"1203":-1.344527006149292,"1204":-9.163776397705078,"1205":5.918951988220215,"1206":7.166281700134277,"1207":4.082671165466309,"1208":-1.9004645347595215,"1209":-4.1891984939575195,"1210":-3.002030849456787,"1211":-9.08299732208252,"1212":4.258785724639893,"1213":-5.7334699630737305,"1214":-1.2459534406661987,"1215":-0.02864362858235836,"1216":3.354901075363159,"1217":-1.9946750402450562,"1218":-5.549108028411865,"1219":-0.3200260400772095,"1220":0.5587461590766907,"1221":8.58474063873291,"1222":8.947443962097168,"1223":1.8880070447921753,"1224":-4.169003963470459,"1225":-0.07991603016853333,"1226":-9.45270824432373,"1227":-3.510281562805176,"1228":-7.186375141143799,"1229":4.322957992553711,"1230":5.23619270324707,"1231":-2.9321441650390625,"1232":9.273367881774902,"1233":0.008262025192379951,"1234":-1.6713019609451294,"1235":-3.5807912349700928,"1236":5.902705192565918,"1237":6.620248794555664,"1238":0.44052907824516296,"1239":0.2711621820926666,"1240":-1.1035441160202026,"1241":7.857480049133301,"1242":5.293330669403076,"1243":1.40943443775177,"1244":-7.368561744689941,"1245":1.995696783065796,"1246":-7.777077674865723,"1247":-3.0869553089141846,"1248":4.531702041625977,"1249":-1.7159411907196045,"1250":-2.551898956298828,"1251":-2.3080008029937744,"1252":-3.275982141494751,"1253":1.6116629838943481,"1254":-2.117959499359131,"1255":1.848695158958435,"1256":7.900440216064453,"1257":4.683635234832764,"1258":-4.942695140838623,"1259":4.459142684936523,"1260":-12.250889778137207,"1261":-3.7996878623962402,"1262":-10.409013748168945,"1263":-1.3049955368041992,"1264":3.97506046295166,"1265":-1.8109731674194336,"1266":5.042433738708496,"1267":-6.102611541748047,"1268":3.089324712753296,"1269":-0.5650677680969238,"1270":-3.6199159622192383,"1271":-8.836935997009277,"1272":2.0522491931915283,"1273":-0.7417633533477783,"1274":2.624887228012085,"1275":0.08118866384029388,"1276":-5.720348834991455,"1277":0.7299726605415344,"1278":-8.030128479003906,"1279":-0.10076078772544861,"1280":-3.016702890396118,"1281":-0.6801488399505615,"1282":-0.08431036025285721,"1283":0.23130369186401367,"1284":-8.972219467163086,"1285":-1.1784560680389404,"1286":-1.4784458875656128,"1287":-4.926821708679199,"1288":-0.9131436347961426,"1289":1.170587420463562,"1290":4.969286918640137,"1291":3.269209861755371,"1292":-7.785307884216309,"1293":-1.9506371021270752,"1294":0.6737322807312012,"1295":0.8159167170524597,"1296":0.5159423351287842,"1297":-2.6350889205932617,"1298":0.6633413434028625,"1299":-8.429186820983887,"1300":-6.229179859161377,"1301":1.964063048362732,"1302":4.7596435546875,"1303":5.936385154724121,"1304":-3.0194737911224365,"1305":-0.9442533254623413,"1306":-7.275777816772461,"1307":5.692619800567627,"1308":5.504735469818115,"1309":-5.811294078826904,"1310":5.197429656982422,"1311":0.758061408996582,"1312":1.224463701248169,"1313":0.42594486474990845,"1314":-0.12839911878108978,"1315":-6.590176582336426,"1316":4.6042799949646,"1317":2.089970111846924,"1318":6.367516040802002,"1319":-4.485082626342773,"1320":-3.2251830101013184,"1321":-4.526782035827637,"1322":-1.6992120742797852,"1323":4.926978588104248,"1324":6.21346378326416,"1325":3.6315693855285645,"1326":9.07754135131836,"1327":-9.083602905273438,"1328":-11.257168769836426,"1329":0.08139581978321075,"1330":-8.68443489074707,"1331":11.704804420471191,"1332":14.914505958557129,"1333":-8.995997428894043,"1334":11.631455421447754,"1335":-2.95839524269104,"1336":-19.46893310546875,"1337":23.91735076904297,"1338":-21.560213088989258,"1339":2.447014093399048,"1340":8.346177101135254,"1341":-2.1044952869415283,"1342":16.06946563720703,"1343":2.8096399307250977,"1344":4.424821376800537,"1345":21.732112884521484,"1346":8.69279670715332,"1347":-3.452868938446045,"1348":-6.460880756378174,"1349":-34.53089904785156,"1350":-14.917437553405762,"1351":-22.751344680786133,"1352":15.806300163269043,"1353":-11.693328857421875,"1354":4.07954740524292,"1355":-24.466033935546875,"1356":-3.617940664291382,"1357":3.273301839828491,"1358":-0.14969192445278168,"1359":-11.13709831237793,"1360":-22.719472885131836,"1361":8.252223014831543,"1362":23.790855407714844,"1363":12.73554801940918,"1364":-6.622467041015625,"1365":-25.15909767150879,"1366":13.686751365661621,"1367":-32.194366455078125,"1368":6.267086029052734,"1369":-16.95811653137207,"1370":10.699291229248047,"1371":-10.249849319458008,"1372":-2.128859043121338,"1373":-0.5582262277603149,"1374":11.815417289733887,"1375":-27.499149322509766,"1376":-8.900775909423828,"1377":-29.5296573638916,"1378":3.205620527267456,"1379":1.5900229215621948,"1380":1.5557749271392822,"1381":1.3527987003326416,"1382":-2.2859973907470703,"1383":-1.5601489543914795,"1384":-1.649771809577942,"1385":-1.0908973217010498,"1386":0.8977188467979431,"1387":-2.172095537185669,"1388":-4.420686721801758,"1389":-4.7526140213012695,"1390":-1.905953288078308,"1391":3.348097085952759,"1392":-0.8092780113220215,"1393":-2.3178558349609375,"1394":-5.759547233581543,"1395":0.22988605499267578,"1396":1.9868179559707642,"1397":4.321151256561279,"1398":2.064177989959717,"1399":-3.849518299102783,"1400":3.332522392272949,"1401":-1.0387506484985352,"1402":-3.899301767349243,"1403":-5.868432998657227,"1404":2.7748358249664307,"1405":-3.473828077316284,"1406":3.0625627040863037,"1407":5.352615833282471,"1408":2.406195878982544,"1409":-1.874551773071289,"1410":1.4161521196365356,"1411":1.4334627389907837,"1412":-3.72773814201355,"1413":0.42983871698379517,"1414":-0.5776532292366028,"1415":2.540687322616577,"1416":-3.022725820541382,"1417":0.8479697704315186,"1418":-0.6257907152175903,"1419":-2.182058572769165,"1420":1.1079556941986084,"1421":-4.75074577331543,"1422":5.766813278198242,"1423":3.0043113231658936,"1424":1.3536564111709595,"1425":-0.9186632037162781,"1426":7.315250873565674,"1427":-5.456817150115967,"1428":3.200995683670044,"1429":9.92867374420166,"1430":5.346303939819336,"1431":-12.489816665649414,"1432":5.91213321685791,"1433":-2.646181344985962,"1434":-0.8221222758293152,"1435":-9.144179344177246,"1436":17.343263626098633,"1437":28.07120132446289,"1438":7.70964241027832,"1439":-7.574292182922363,"1440":2.9434573650360107,"1441":-5.044193267822266,"1442":-19.037914276123047,"1443":13.166116714477539,"1444":16.25971221923828,"1445":43.262454986572266,"1446":-0.7245316505432129,"1447":40.86208724975586,"1448":16.265382766723633,"1449":2.561647891998291,"1450":10.128987312316895,"1451":13.098316192626953,"1452":8.663666725158691,"1453":-6.349632740020752,"1454":11.568466186523438,"1455":14.391221046447754,"1456":12.870649337768555,"1457":-18.44503402709961,"1458":0.5872291922569275,"1459":-8.515435218811035,"1460":-26.745237350463867,"1461":-13.093863487243652,"1462":3.759158134460449,"1463":-3.6291375160217285,"1464":-10.047380447387695,"1465":-28.303936004638672,"1466":5.066100597381592,"1467":-4.0626068115234375,"1468":-9.421675682067871,"1469":21.565391540527344,"1470":1.552347183227539,"1471":-10.624731063842773,"1472":5.397008895874023,"1473":9.223600387573242,"1474":19.969619750976562,"1475":-11.847299575805664,"1476":6.878665924072266,"1477":2.8160696029663086,"1478":16.76004981994629,"1479":-7.41227912902832,"1480":8.263875961303711,"1481":-18.456912994384766,"1482":-15.33122444152832,"1483":-16.290996551513672,"1484":-4.9457831382751465,"1485":-4.360119342803955,"1486":3.6734392642974854,"1487":12.07413387298584,"1488":-4.309206008911133,"1489":-12.519339561462402,"1490":-2.2088065147399902,"1491":-11.4901123046875,"1492":0.559098482131958,"1493":-4.46592378616333,"1494":3.4580295085906982,"1495":3.943585157394409,"1496":-5.146584510803223,"1497":1.472926139831543,"1498":-6.827451229095459,"1499":1.5329526662826538,"1500":-9.271712303161621,"1501":-2.9493937492370605,"1502":2.5834298133850098,"1503":-3.4632339477539062,"1504":9.245948791503906,"1505":1.7577072381973267,"1506":5.037783622741699,"1507":4.665202617645264,"1508":1.226575255393982,"1509":-1.4116852283477783,"1510":2.7207350730895996,"1511":-5.167088508605957,"1512":6.573647975921631,"1513":6.356545448303223,"1514":-6.5642852783203125,"1515":6.3372297286987305,"1516":-0.722717821598053,"1517":7.021250247955322,"1518":0.5889957547187805,"1519":-9.587418556213379,"1520":-4.76461935043335,"1521":-5.937618255615234,"1522":7.228577613830566,"1523":-4.330842971801758,"1524":8.73454761505127,"1525":-22.450767517089844,"1526":-4.262905597686768,"1527":-0.3238736093044281,"1528":-2.201204776763916,"1529":-8.221222877502441,"1530":-7.4266510009765625,"1531":5.352884769439697,"1532":-0.30225813388824463,"1533":-7.470096111297607,"1534":3.648209810256958,"1535":-5.656005859375,"1536":-2.930675983428955,"1537":-2.908618450164795,"1538":2.554370403289795,"1539":-5.179332256317139,"1540":9.937631607055664,"1541":-14.918736457824707,"1542":-7.162261009216309,"1543":-9.362131118774414,"1544":2.076395034790039,"1545":-0.9130966663360596,"1546":-4.914893627166748,"1547":0.8708789348602295,"1548":-1.4590328931808472,"1549":-4.982516288757324,"1550":-0.39835110306739807,"1551":5.272601127624512,"1552":13.870741844177246,"1553":-5.75615119934082,"1554":-13.274709701538086,"1555":-0.9115847945213318,"1556":1.3064333200454712,"1557":-9.357267379760742,"1558":-8.194241523742676,"1559":0.6112179160118103,"1560":1.8503029346466064,"1561":2.8894877433776855,"1562":-3.3436899185180664,"1563":-4.6196608543396,"1564":-4.7661590576171875,"1565":1.4079296588897705,"1566":14.941425323486328,"1567":3.2021501064300537,"1568":-8.467968940734863,"1569":-3.889035224914551,"1570":-1.733563780784607,"1571":-13.925135612487793,"1572":-12.475278854370117,"1573":3.6449437141418457,"1574":4.885185241699219,"1575":-2.2209842205047607,"1576":4.385489463806152,"1577":0.5090609192848206,"1578":-6.67404842376709,"1579":-7.009291648864746,"1580":-7.1399431228637695,"1581":-10.18299388885498,"1582":4.626945495605469,"1583":13.034151077270508,"1584":-5.288635730743408,"1585":3.739776372909546,"1586":-7.844056606292725,"1587":-2.2923195362091064,"1588":12.323987007141113,"1589":6.70580530166626,"1590":20.023303985595703,"1591":3.467648983001709,"1592":-11.559244155883789,"1593":-1.385894536972046,"1594":-16.994184494018555,"1595":-2.4525439739227295,"1596":-24.82703971862793,"1597":-7.603184223175049,"1598":-8.624466896057129,"1599":-6.8738274574279785,"1600":-10.005971908569336,"1601":-9.581954002380371,"1602":-7.105262756347656,"1603":-1.4614338874816895,"1604":6.019436359405518,"1605":-7.674112319946289,"1606":4.1049485206604,"1607":10.094720840454102,"1608":9.452478408813477,"1609":-11.126272201538086,"1610":12.680280685424805,"1611":-3.5763635635375977,"1612":-3.7951886653900146,"1613":5.909959316253662,"1614":-11.986054420471191,"1615":-9.530031204223633,"1616":20.131290435791016,"1617":18.710365295410156,"1618":-5.3301568031311035,"1619":-4.922389507293701,"1620":11.864920616149902,"1621":13.159296035766602,"1622":-2.2546305656433105,"1623":9.198819160461426,"1624":14.493904113769531,"1625":-0.5420833826065063,"1626":2.091383934020996,"1627":3.1650350093841553,"1628":1.344887375831604,"1629":4.506408214569092,"1630":-2.3176474571228027,"1631":11.197663307189941,"1632":-5.7590012550354,"1633":-0.22908610105514526,"1634":-17.896141052246094,"1635":27.318784713745117,"1636":-18.496461868286133,"1637":11.490262031555176,"1638":3.3617148399353027,"1639":-5.92380428314209,"1640":4.427123069763184,"1641":17.828310012817383,"1642":5.547235012054443,"1643":9.779958724975586,"1644":14.35584545135498,"1645":-5.671702861785889,"1646":-9.518461227416992,"1647":-15.460227012634277,"1648":5.390974521636963,"1649":9.6810884475708,"1650":-1.073166012763977,"1651":-22.611005783081055,"1652":2.6480143070220947,"1653":4.800013542175293,"1654":1.8911569118499756,"1655":11.962106704711914,"1656":-17.34360694885254,"1657":-2.068106174468994,"1658":9.122629165649414,"1659":28.239242553710938,"1660":3.843386173248291,"1661":-7.855629920959473,"1662":21.52243423461914,"1663":-10.843345642089844,"1664":12.317315101623535,"1665":-14.52272891998291,"1666":2.236997127532959,"1667":12.27505874633789,"1668":8.137046813964844,"1669":5.3114447593688965,"1670":0.8593097925186157,"1671":-3.324618101119995,"1672":-8.661432266235352,"1673":-13.784777641296387,"1674":1.9312607049942017,"1675":4.493123531341553,"1676":-16.591520309448242,"1677":-16.15978240966797,"1678":-0.1296800822019577,"1679":-10.576922416687012,"1680":6.089012145996094,"1681":7.602503776550293,"1682":-5.159017562866211,"1683":-10.41264820098877,"1684":17.744056701660156,"1685":-1.6574801206588745,"1686":-10.718277931213379,"1687":-4.352459907531738,"1688":-10.438501358032227,"1689":-10.956727027893066,"1690":2.8772056102752686,"1691":-14.574162483215332,"1692":1.3056164979934692,"1693":-19.05228042602539,"1694":8.472389221191406,"1695":-7.898877143859863,"1696":6.360635280609131,"1697":5.856468200683594,"1698":11.616823196411133,"1699":1.621897578239441,"1700":2.719393491744995,"1701":13.004841804504395,"1702":10.506062507629395,"1703":7.77058219909668,"1704":1.819586992263794,"1705":-1.2037562131881714,"1706":4.711730480194092,"1707":2.433013439178467,"1708":-2.938411235809326,"1709":3.113506555557251,"1710":-1.0321260690689087,"1711":-5.076677322387695,"1712":10.628158569335938,"1713":-3.1154227256774902,"1714":-10.470827102661133,"1715":-8.526749610900879,"1716":-3.1815671920776367,"1717":1.6824103593826294,"1718":-0.2423633188009262,"1719":-11.080686569213867,"1720":9.794784545898438,"1721":-2.1204473972320557,"1722":-1.235325813293457,"1723":-10.059752464294434,"1724":-5.3859076499938965,"1725":4.547010898590088,"1726":-3.1384472846984863,"1727":-10.923298835754395,"1728":2.264613389968872,"1729":-2.131514549255371,"1730":-18.730634689331055,"1731":10.488032341003418,"1732":-0.061780691146850586,"1733":-9.3618745803833,"1734":-4.53396463394165,"1735":12.038171768188477,"1736":-5.921477317810059,"1737":14.996773719787598,"1738":0.714891254901886,"1739":6.705859184265137,"1740":-0.1101701557636261,"1741":-6.735868453979492,"1742":0.7125596404075623,"1743":-0.13855139911174774,"1744":-5.697742462158203,"1745":6.135495185852051,"1746":-2.3860418796539307,"1747":6.567723751068115,"1748":2.426629066467285,"1749":0.42878466844558716,"1750":-2.1625664234161377,"1751":-8.736648559570312,"1752":-3.0364885330200195,"1753":-1.3705559968948364,"1754":-0.4504986107349396,"1755":0.8586767315864563,"1756":-3.4767005443573,"1757":-2.3964638710021973,"1758":2.8756017684936523,"1759":4.552725315093994,"1760":-5.614187717437744,"1761":3.813955068588257,"1762":0.16204141080379486,"1763":6.161768436431885,"1764":-6.5171799659729,"1765":5.111555099487305,"1766":1.3945057392120361,"1767":-0.10237085819244385,"1768":2.7984619140625,"1769":7.312899112701416,"1770":0.7630288004875183,"1771":-2.346065044403076,"1772":2.395146369934082,"1773":-2.691236734390259,"1774":3.2062249183654785,"1775":3.8829891681671143,"1776":1.2678606510162354,"1777":1.5553295612335205,"1778":-2.2700064182281494,"1779":-2.250849962234497,"1780":7.98716926574707,"1781":3.686732769012451,"1782":0.8107309937477112,"1783":2.8967573642730713,"1784":3.751314401626587,"1785":-3.5413382053375244,"1786":-0.6752967834472656,"1787":-2.536743402481079,"1788":-4.060410022735596,"1789":-1.5907659530639648,"1790":0.4919646680355072,"1791":-1.638004183769226,"1792":3.8572263717651367,"1793":1.5854072570800781,"1794":2.794718027114868,"1795":-2.6062724590301514,"1796":3.304365634918213,"1797":0.7461967468261719,"1798":1.928898572921753,"1799":-11.052492141723633,"1800":0.483568012714386,"1801":-7.651140213012695,"1802":-2.088365316390991,"1803":-9.428709983825684,"1804":-0.0962667390704155,"1805":6.511886119842529,"1806":-4.6427130699157715,"1807":0.6853504180908203,"1808":-6.932413578033447,"1809":1.5013604164123535,"1810":8.709802627563477,"1811":-0.5170075297355652,"1812":2.7864456176757812,"1813":6.525304794311523,"1814":1.6540403366088867,"1815":-2.4918417930603027,"1816":-3.094379425048828,"1817":11.499091148376465,"1818":-0.8838090300559998,"1819":2.5162789821624756,"1820":-4.765211582183838,"1821":-9.061905860900879,"1822":8.461199760437012,"1823":0.26374125480651855,"1824":-5.976089000701904,"1825":-2.777824640274048,"1826":-7.769277572631836,"1827":3.6508257389068604,"1828":0.0883542075753212,"1829":3.1583986282348633,"1830":-1.444841742515564,"1831":7.660857200622559,"1832":8.090327262878418,"1833":-10.58611011505127,"1834":4.501105308532715,"1835":17.210214614868164,"1836":4.637563228607178,"1837":2.5363056659698486,"1838":-8.246553421020508,"1839":-1.5035067796707153,"1840":-0.825732409954071,"1841":-6.379457950592041,"1842":3.5726547241210938,"1843":-0.33233559131622314,"1844":3.751887798309326,"1845":6.369102954864502,"1846":-5.544476509094238,"1847":-2.1261391639709473,"1848":-11.768054008483887,"1849":-6.077061653137207,"1850":0.4740641117095947,"1851":-10.806326866149902,"1852":-2.802971601486206,"1853":4.408857345581055,"1854":2.023723602294922,"1855":-10.274758338928223,"1856":3.8074395656585693,"1857":-5.712504863739014,"1858":2.778573989868164,"1859":1.164533257484436,"1860":10.125823974609375,"1861":-1.5045446157455444,"1862":3.9720921516418457,"1863":-2.8217825889587402,"1864":-12.055582046508789,"1865":3.1128556728363037,"1866":-4.483465194702148,"1867":18.413921356201172,"1868":-7.456212043762207,"1869":-11.545997619628906,"1870":-4.805550575256348,"1871":1.2256673574447632,"1872":4.2912917137146,"1873":0.9025106430053711,"1874":-1.8556077480316162,"1875":4.60037088394165,"1876":18.81999969482422,"1877":1.2360626459121704,"1878":8.510457038879395,"1879":1.3108928203582764,"1880":4.090198516845703,"1881":0.6513469815254211,"1882":4.293180465698242,"1883":-8.625218391418457,"1884":-4.865311622619629,"1885":6.153540134429932,"1886":1.7587378025054932,"1887":-6.4917192459106445,"1888":7.649201393127441,"1889":7.317458152770996,"1890":-2.381814956665039,"1891":-2.500422477722168,"1892":0.7356798648834229,"1893":-3.9181580543518066,"1894":8.741111755371094,"1895":-9.945523262023926,"1896":8.262943267822266,"1897":-9.723552703857422,"1898":12.45727252960205,"1899":5.382807731628418,"1900":-7.372439384460449,"1901":-6.2878546714782715,"1902":8.133000373840332,"1903":1.2034562826156616,"1904":4.980623245239258,"1905":-3.50927996635437,"1906":-2.2783753871917725,"1907":-15.174124717712402,"1908":-5.03129768371582,"1909":3.4520599842071533,"1910":13.721898078918457,"1911":18.561809539794922,"1912":-4.807541847229004,"1913":-11.811210632324219,"1914":-5.5471014976501465,"1915":-19.685739517211914,"1916":-4.990121841430664,"1917":6.33282995223999,"1918":-8.126546859741211,"1919":1.1099127531051636,"1920":-2.6890902519226074,"1921":-6.048465251922607,"1922":-0.33807334303855896,"1923":-12.869196891784668,"1924":1.008750557899475,"1925":-1.2168813943862915,"1926":15.77901554107666,"1927":9.175137519836426,"1928":-3.3787639141082764,"1929":1.8805656433105469,"1930":3.5566015243530273,"1931":8.253543853759766,"1932":-6.716309547424316,"1933":-14.452428817749023,"1934":9.505861282348633,"1935":-0.05579139292240143,"1936":1.862587809562683,"1937":-1.364612102508545,"1938":-8.631921768188477,"1939":-0.4809117615222931,"1940":-2.4996864795684814,"1941":19.765092849731445,"1942":5.96150541305542,"1943":3.3815066814422607,"1944":11.579718589782715,"1945":-8.539178848266602,"1946":-7.368791580200195,"1947":-5.255350589752197,"1948":5.089863300323486,"1949":-11.580035209655762,"1950":0.062249377369880676,"1951":-5.419440746307373,"1952":5.965836048126221,"1953":2.850724220275879,"1954":-12.748884201049805,"1955":-5.012146472930908,"1956":12.570514678955078,"1957":-5.352882385253906,"1958":1.2751431465148926,"1959":11.781664848327637,"1960":9.33476448059082,"1961":-1.0638080835342407,"1962":9.313579559326172,"1963":10.947836875915527,"1964":2.2574033737182617,"1965":6.86684513092041,"1966":-0.7571829557418823,"1967":-17.642000198364258,"1968":3.137460947036743,"1969":-11.58978271484375,"1970":0.04998239129781723,"1971":6.38350772857666,"1972":-15.667876243591309,"1973":-9.498574256896973,"1974":4.068164348602295,"1975":11.497899055480957,"1976":14.294246673583984,"1977":2.100104570388794,"1978":3.893001079559326,"1979":6.608399391174316,"1980":-3.494431257247925,"1981":-6.503756999969482,"1982":-10.601615905761719,"1983":2.1265804767608643,"1984":-3.714116096496582,"1985":-8.249515533447266,"1986":-20.231685638427734,"1987":-5.4301676750183105,"1988":-4.715330123901367,"1989":6.18464994430542,"1990":-3.4271504878997803,"1991":-0.43658289313316345,"1992":1.6976943016052246,"1993":8.750189781188965,"1994":6.486562252044678,"1995":-16.827306747436523,"1996":-7.908195972442627,"1997":8.876535415649414,"1998":4.357227325439453,"1999":-5.001635551452637,"2000":3.9015111923217773,"2001":10.278494834899902,"2002":-7.574130058288574,"2003":4.471546173095703,"2004":-8.509235382080078,"2005":-9.19580364227295,"2006":12.314754486083984,"2007":-6.8399434089660645,"2008":1.994709849357605,"2009":13.325056076049805,"2010":-2.478783130645752,"2011":5.119806289672852,"2012":1.2541584968566895,"2013":13.39169979095459,"2014":-1.0162848234176636,"2015":-5.772089004516602,"2016":5.571437835693359,"2017":0.46806660294532776,"2018":-3.635547161102295,"2019":-4.860823154449463,"2020":-6.3895263671875,"2021":-1.1781721115112305,"2022":0.5171177983283997,"2023":2.974388360977173,"2024":15.909722328186035,"2025":-4.468132495880127,"2026":-10.919949531555176,"2027":-10.63225269317627,"2028":1.3729549646377563,"2029":3.3325634002685547,"2030":0.7858801484107971,"2031":-11.573143005371094,"2032":10.311970710754395,"2033":4.416230201721191,"2034":1.4476958513259888,"2035":-0.6499207019805908,"2036":9.068278312683105,"2037":6.440944194793701,"2038":13.163595199584961,"2039":-8.921820640563965,"2040":0.009744348004460335,"2041":0.9314009547233582,"2042":5.157590389251709,"2043":1.8366323709487915,"2044":-1.6944693326950073,"2045":10.059195518493652,"2046":0.2967762053012848,"2047":2.1246843338012695,"2048":4.532967567443848,"2049":-1.986441969871521,"2050":16.852609634399414,"2051":-5.598971843719482,"2052":2.5168588161468506,"2053":-3.5282487869262695,"2054":-1.9891068935394287,"2055":0.17605918645858765,"2056":-0.6473279595375061,"2057":-8.460487365722656,"2058":-3.1771907806396484,"2059":-0.6257138252258301,"2060":1.5088720321655273,"2061":-4.085951805114746,"2062":1.6885219812393188,"2063":-8.835474014282227,"2064":7.500405788421631,"2065":-9.180010795593262,"2066":13.467351913452148,"2067":2.0263609886169434,"2068":-11.229124069213867,"2069":0.31302180886268616,"2070":-2.150634288787842,"2071":-6.978236675262451,"2072":1.2918555736541748,"2073":6.928027153015137,"2074":5.590348720550537,"2075":-7.768960475921631,"2076":1.7151570320129395,"2077":18.924331665039062,"2078":-9.916154861450195,"2079":-16.24641990661621,"2080":-0.6863617300987244,"2081":-15.252984046936035,"2082":19.174304962158203,"2083":-6.1930670738220215,"2084":-12.0394287109375,"2085":-1.6975871324539185,"2086":2.745137929916382,"2087":5.612105369567871,"2088":2.7124435901641846,"2089":3.077631711959839,"2090":10.147229194641113,"2091":12.248987197875977,"2092":-7.98927116394043,"2093":-0.5594041347503662,"2094":5.106651782989502,"2095":3.2690296173095703,"2096":8.62742805480957,"2097":7.019463539123535,"2098":5.064187526702881,"2099":3.460042953491211,"2100":-15.262577056884766,"2101":7.441327095031738,"2102":-4.388155937194824,"2103":17.675933837890625,"2104":-0.08482713252305984,"2105":11.436823844909668,"2106":1.515873908996582,"2107":1.3412935733795166,"2108":-4.390434265136719,"2109":-15.370200157165527,"2110":-24.844621658325195,"2111":2.7163448333740234,"2112":2.4926652908325195,"2113":-4.946262836456299,"2114":1.1511561870574951,"2115":4.617010116577148,"2116":9.839680671691895,"2117":6.270064830780029,"2118":-4.22152042388916,"2119":14.135375022888184,"2120":5.150854587554932,"2121":-16.322101593017578,"2122":3.387361526489258,"2123":-11.983980178833008,"2124":-4.915755748748779,"2125":10.62722110748291,"2126":6.632155895233154,"2127":-7.363458633422852,"2128":-3.405428409576416,"2129":-1.0499989986419678,"2130":-0.8762797713279724,"2131":7.6107001304626465,"2132":4.145718097686768,"2133":-15.674488067626953,"2134":5.117606163024902,"2135":-11.562897682189941,"2136":7.64910888671875,"2137":-0.4174915850162506,"2138":10.83779239654541,"2139":-6.054251194000244,"2140":0.4301958680152893,"2141":2.2458038330078125,"2142":-9.774604797363281,"2143":-0.9336153864860535,"2144":5.691694736480713,"2145":14.59132194519043,"2146":-1.6433277130126953,"2147":3.9127511978149414,"2148":-2.4734885692596436,"2149":1.7238128185272217,"2150":1.5329185724258423,"2151":-7.346947193145752,"2152":2.596827745437622,"2153":2.6346237659454346,"2154":21.99772834777832,"2155":17.13039779663086,"2156":-11.04031753540039,"2157":-17.646724700927734,"2158":-0.2014581859111786,"2159":-6.153689384460449,"2160":-2.8591065406799316,"2161":6.938314914703369,"2162":0.7158857583999634,"2163":7.8672261238098145,"2164":-3.814152479171753,"2165":7.275580883026123,"2166":-6.137389659881592,"2167":-5.242501258850098,"2168":4.234771251678467,"2169":-1.256101369857788,"2170":-2.658479690551758,"2171":1.4734796285629272,"2172":-10.02815055847168,"2173":-15.196575164794922,"2174":8.591957092285156,"2175":7.104082107543945,"2176":4.254378795623779,"2177":-11.725373268127441,"2178":-10.614922523498535,"2179":-10.03914737701416,"2180":-15.136032104492188,"2181":-8.613546371459961,"2182":-13.942079544067383,"2183":-20.375791549682617,"2184":-20.248022079467773,"2185":-13.227021217346191,"2186":-3.8381450176239014,"2187":11.072854042053223,"2188":-14.514594078063965,"2189":3.92842173576355,"2190":0.764510452747345,"2191":42.181129455566406,"2192":-9.552635192871094,"2193":20.625825881958008,"2194":-11.688128471374512,"2195":1.1543289422988892,"2196":10.24277400970459,"2197":14.940601348876953,"2198":0.6409726142883301,"2199":22.058822631835938,"2200":-27.055662155151367,"2201":-8.57182502746582,"2202":-12.276750564575195,"2203":-15.135022163391113,"2204":2.919389486312866,"2205":3.301837682723999,"2206":-12.440146446228027,"2207":10.522383689880371,"2208":3.519103765487671,"2209":22.1729736328125,"2210":-24.105030059814453,"2211":13.480127334594727,"2212":-13.024957656860352,"2213":15.417108535766602,"2214":-15.153401374816895,"2215":-8.0069580078125,"2216":2.17631196975708,"2217":-10.015380859375,"2218":6.249409198760986,"2219":-13.927762031555176,"2220":3.417069911956787,"2221":3.5883922576904297,"2222":-3.160799264907837,"2223":-18.687271118164062,"2224":2.286673069000244,"2225":-29.124853134155273,"2226":-4.731618404388428,"2227":9.233992576599121,"2228":-16.889379501342773,"2229":33.00260925292969,"2230":-11.219675064086914,"2231":22.299837112426758,"2232":-9.096209526062012,"2233":7.777280807495117,"2234":-5.695843696594238,"2235":7.585015773773193,"2236":8.74499225616455,"2237":5.427350997924805,"2238":-14.564618110656738,"2239":-17.037708282470703,"2240":35.533966064453125,"2241":-8.414769172668457,"2242":27.71175765991211,"2243":28.555631637573242,"2244":29.214439392089844,"2245":-18.385047912597656,"2246":-5.467913627624512,"2247":-18.854198455810547,"2248":9.701004028320312,"2249":40.97023391723633,"2250":21.110515594482422,"2251":17.198598861694336,"2252":-5.342981815338135,"2253":2.2513866424560547,"2254":-24.166399002075195,"2255":-1.5293331146240234,"2256":21.556188583374023,"2257":3.995901107788086,"2258":-15.81137752532959,"2259":-22.949514389038086,"2260":-1.203987717628479,"2261":-1.1046817302703857,"2262":17.589263916015625,"2263":2.7380549907684326,"2264":-30.91103172302246,"2265":27.299217224121094,"2266":13.608964920043945,"2267":11.547109603881836,"2268":23.949934005737305,"2269":-11.741453170776367,"2270":-2.6401493549346924,"2271":-3.913419246673584,"2272":-4.6541900634765625,"2273":16.461383819580078,"2274":-11.319140434265137,"2275":-9.220666885375977,"2276":1.816943645477295,"2277":-24.377155303955078,"2278":-28.638206481933594,"2279":-10.067704200744629,"2280":5.970752716064453,"2281":6.935908794403076,"2282":22.637855529785156,"2283":4.539252758026123,"2284":-16.54317283630371,"2285":-12.452898979187012,"2286":-12.502211570739746,"2287":-10.112752914428711,"2288":-26.829381942749023,"2289":-16.983036041259766,"2290":-0.07258953154087067,"2291":5.595689296722412,"2292":-3.915864944458008,"2293":3.7741377353668213,"2294":-11.714710235595703,"2295":-14.05512809753418,"2296":-8.42273235321045,"2297":-8.144336700439453,"2298":-2.344930410385132,"2299":20.98003387451172,"2300":-4.2781171798706055,"2301":4.507668972015381,"2302":7.608884334564209,"2303":17.859817504882812,"2304":4.5873212814331055,"2305":14.193761825561523,"2306":-20.133052825927734,"2307":2.431039571762085,"2308":-14.783296585083008,"2309":-16.867454528808594,"2310":-11.793370246887207,"2311":1.8805522918701172,"2312":-3.663957357406616,"2313":13.009383201599121,"2314":-6.4324116706848145,"2315":5.0137810707092285,"2316":17.91678810119629,"2317":-8.325687408447266,"2318":2.7403340339660645,"2319":-6.476487636566162,"2320":-6.901440143585205,"2321":-3.0807857513427734,"2322":-11.37535572052002,"2323":-4.947693824768066,"2324":20.441097259521484,"2325":-3.2519803047180176,"2326":2.2891247272491455,"2327":7.074516296386719,"2328":-6.405010223388672,"2329":-0.8890788555145264,"2330":10.258926391601562,"2331":3.714040756225586,"2332":13.029964447021484,"2333":21.344478607177734,"2334":2.468827724456787,"2335":0.6794280409812927,"2336":-3.113891124725342,"2337":-23.171247482299805,"2338":7.259028911590576,"2339":2.1738264560699463,"2340":-16.292827606201172,"2341":22.086837768554688,"2342":4.40030574798584,"2343":-10.451498985290527,"2344":-0.24641887843608856,"2345":21.743898391723633,"2346":-8.445646286010742,"2347":17.651941299438477,"2348":23.218605041503906,"2349":15.715071678161621,"2350":18.25906753540039,"2351":2.7068309783935547,"2352":7.136414527893066,"2353":20.31043243408203,"2354":-11.255263328552246,"2355":21.412601470947266,"2356":-16.537612915039062,"2357":-6.302284240722656,"2358":-6.629703998565674,"2359":4.577134609222412,"2360":12.131284713745117,"2361":-7.081673622131348,"2362":8.82673454284668,"2363":-13.459563255310059,"2364":-1.7163084745407104,"2365":4.766000747680664,"2366":19.31833267211914,"2367":-15.856083869934082,"2368":-14.879965782165527,"2369":5.887051105499268,"2370":-11.199851036071777,"2371":5.167463779449463,"2372":-12.501365661621094,"2373":-4.27267599105835,"2374":-5.47813081741333,"2375":2.9352128505706787,"2376":-16.314796447753906,"2377":30.715871810913086,"2378":-27.85986328125,"2379":18.916109085083008,"2380":-1.0071423053741455,"2381":17.804519653320312,"2382":-1.2211445569992065,"2383":18.648700714111328,"2384":-5.290438652038574,"2385":-3.538447618484497,"2386":10.068781852722168,"2387":-4.669395923614502,"2388":-6.395545482635498,"2389":13.193000793457031,"2390":18.07811737060547,"2391":1.4749596118927002,"2392":26.6956844329834,"2393":12.28990364074707,"2394":26.493804931640625,"2395":14.704607009887695,"2396":-2.0627686977386475,"2397":-16.443096160888672,"2398":-26.81160545349121,"2399":-14.384861946105957,"2400":13.042729377746582,"2401":-10.615804672241211,"2402":12.397198677062988,"2403":1.3020696640014648,"2404":19.27287483215332,"2405":-29.420207977294922,"2406":-1.453607439994812,"2407":-2.2150371074676514,"2408":12.073677062988281,"2409":21.579832077026367,"2410":-8.532133102416992,"2411":-28.363460540771484,"2412":8.269859313964844,"2413":-6.102293014526367,"2414":-6.416419506072998,"2415":-9.69958209991455,"2416":6.357267379760742,"2417":-9.208234786987305,"2418":9.146807670593262,"2419":-16.01688575744629,"2420":-17.497013092041016,"2421":-0.2442339062690735,"2422":-0.3262351155281067,"2423":-21.966028213500977,"2424":-0.33608683943748474,"2425":4.853611946105957,"2426":-3.5620603561401367,"2427":0.48970794677734375,"2428":-22.56774139404297,"2429":-2.0897998809814453,"2430":4.374371528625488,"2431":-3.998870611190796,"2432":-6.0533294677734375,"2433":-10.312299728393555,"2434":-1.8096611499786377,"2435":15.649478912353516,"2436":-10.528414726257324,"2437":12.920753479003906,"2438":10.242735862731934,"2439":3.845008134841919,"2440":10.252215385437012,"2441":-2.5615932941436768,"2442":-2.784139394760132,"2443":-0.26084840297698975,"2444":-7.895867824554443,"2445":-0.7709044218063354,"2446":-1.8076680898666382,"2447":-12.125732421875,"2448":-5.816840171813965,"2449":7.48255729675293,"2450":-8.689214706420898,"2451":-3.184234857559204,"2452":-4.746777534484863,"2453":-2.711169958114624,"2454":-11.914151191711426,"2455":4.222437858581543,"2456":2.4243102073669434,"2457":-4.58296012878418,"2458":1.8618825674057007,"2459":1.4130244255065918,"2460":-0.9314240217208862,"2461":14.324540138244629,"2462":-15.264731407165527,"2463":-4.247350692749023,"2464":1.7974351644515991,"2465":5.00730562210083,"2466":15.054229736328125,"2467":-1.9746792316436768,"2468":-3.9382832050323486,"2469":-4.345570087432861,"2470":12.562272071838379,"2471":13.296133995056152,"2472":2.2300302982330322,"2473":-0.8946879506111145,"2474":-9.23305606842041,"2475":-0.45311933755874634,"2476":0.2782321274280548,"2477":-16.948091506958008,"2478":-7.586500644683838,"2479":-0.7743725180625916,"2480":4.358900547027588,"2481":6.545568466186523,"2482":-5.296416759490967,"2483":10.925029754638672,"2484":-16.178224563598633,"2485":6.813332557678223,"2486":7.710978984832764,"2487":-7.255902290344238,"2488":-10.685620307922363,"2489":-3.0561087131500244,"2490":1.1108713150024414,"2491":11.78034496307373,"2492":4.873025417327881,"2493":35.14598846435547,"2494":-7.672187805175781,"2495":-10.958168983459473,"2496":-0.0688067078590393,"2497":-8.40613079071045,"2498":7.625069618225098,"2499":0.7975708842277527,"2500":-5.235264778137207,"2501":12.282124519348145,"2502":-12.044903755187988,"2503":0.7755030989646912,"2504":-23.64126205444336,"2505":2.3633053302764893,"2506":-26.798141479492188,"2507":0.8522332310676575,"2508":12.230298042297363,"2509":5.6033244132995605,"2510":3.6969542503356934,"2511":-20.961301803588867,"2512":12.517754554748535,"2513":6.47806978225708,"2514":15.423622131347656,"2515":5.219730854034424,"2516":-31.847694396972656,"2517":-10.824479103088379,"2518":-32.16049575805664,"2519":-5.129692077636719,"2520":-4.327198028564453,"2521":3.8932180404663086,"2522":-3.074756383895874,"2523":0.4985066056251526,"2524":10.344754219055176,"2525":16.898483276367188,"2526":-0.10342875123023987,"2527":18.688846588134766,"2528":-0.13143931329250336,"2529":0.8036170601844788,"2530":8.363992691040039,"2531":-0.6837455630302429,"2532":1.4341115951538086,"2533":5.5293684005737305,"2534":-20.761306762695312,"2535":-6.562445163726807,"2536":8.987799644470215,"2537":-0.029332667589187622,"2538":-1.5823307037353516,"2539":2.043897867202759,"2540":1.3726015090942383,"2541":-3.7126526832580566,"2542":-10.320199966430664,"2543":7.760785102844238,"2544":5.259326934814453,"2545":-9.760702133178711,"2546":2.9304027557373047,"2547":-21.120595932006836,"2548":-18.115856170654297,"2549":-0.7322151064872742,"2550":-0.8398135900497437,"2551":2.9394774436950684,"2552":-2.4202721118927,"2553":20.468488693237305,"2554":2.419914484024048,"2555":21.431737899780273,"2556":23.540607452392578,"2557":2.997323989868164,"2558":9.652871131896973,"2559":-14.727890014648438,"2560":22.396406173706055,"2561":0.9709627628326416,"2562":-17.579450607299805,"2563":-25.80824089050293,"2564":-9.500737190246582,"2565":9.444418907165527,"2566":-1.2648288011550903,"2567":-11.598986625671387,"2568":-5.739505767822266,"2569":6.7251811027526855,"2570":-6.821383953094482,"2571":23.924203872680664,"2572":8.209245681762695,"2573":14.365407943725586,"2574":-21.860708236694336,"2575":20.838340759277344,"2576":-7.318341255187988,"2577":17.20430564880371,"2578":4.712279796600342,"2579":-12.209691047668457,"2580":-27.45764923095703,"2581":1.1268298625946045,"2582":-6.722047805786133,"2583":-11.469886779785156,"2584":-9.862529754638672,"2585":34.40714645385742,"2586":3.391000509262085,"2587":32.59529113769531,"2588":10.565407752990723,"2589":-9.153647422790527,"2590":18.240236282348633,"2591":7.869121074676514,"2592":2.9405360221862793,"2593":3.250200033187866,"2594":-31.2946834564209,"2595":-25.105297088623047,"2596":11.670151710510254,"2597":-8.861554145812988,"2598":5.2022175788879395,"2599":6.832162380218506,"2600":14.209005355834961,"2601":-4.361289024353027,"2602":0.987488865852356,"2603":-21.414030075073242,"2604":7.307944297790527,"2605":-3.1067023277282715,"2606":-9.35032844543457,"2607":-24.372568130493164,"2608":-12.601547241210938,"2609":-15.11166763305664,"2610":5.7145514488220215,"2611":-0.0820755660533905,"2612":-5.477657794952393,"2613":-29.16205596923828,"2614":6.831371784210205,"2615":4.243836402893066,"2616":5.96988582611084,"2617":14.056983947753906,"2618":-18.61111831665039,"2619":22.051851272583008,"2620":-3.7039690017700195,"2621":-1.5614020824432373,"2622":-21.00752067565918,"2623":2.210212230682373,"2624":-4.420005798339844,"2625":12.055757522583008,"2626":-9.399679183959961,"2627":-7.806159973144531,"2628":-1.170905351638794,"2629":4.746906280517578,"2630":-4.522670745849609,"2631":-6.85693359375,"2632":-20.193832397460938,"2633":-3.9402501583099365,"2634":24.465517044067383,"2635":-4.102356910705566,"2636":-1.5772150754928589,"2637":-13.522883415222168,"2638":-9.326650619506836,"2639":11.612001419067383,"2640":0.6116796731948853,"2641":-4.704334735870361,"2642":28.25800132751465,"2643":-12.907943725585938,"2644":-9.725533485412598,"2645":23.69034767150879,"2646":-10.452617645263672,"2647":17.90372085571289,"2648":3.1279852390289307,"2649":4.609172344207764,"2650":4.981405735015869,"2651":-2.9061784744262695,"2652":4.807260513305664,"2653":-1.9183088541030884,"2654":-2.934317111968994,"2655":0.10011399537324905,"2656":-8.093633651733398,"2657":10.573208808898926,"2658":3.812634229660034,"2659":7.711454391479492,"2660":-3.6430201530456543,"2661":-7.801113605499268,"2662":-1.4876800775527954,"2663":-7.929983139038086,"2664":-0.9728794097900391,"2665":-1.3087536096572876,"2666":3.526346445083618,"2667":-0.8782863020896912,"2668":3.5392744541168213,"2669":2.077665090560913,"2670":6.332671165466309,"2671":3.888381242752075,"2672":-5.727677345275879,"2673":3.8805184364318848,"2674":6.28760290145874,"2675":-3.4571731090545654,"2676":-0.9157665967941284,"2677":-1.058681845664978,"2678":2.0946218967437744,"2679":5.519625186920166,"2680":8.354063987731934,"2681":-0.10682424902915955,"2682":-1.5546073913574219,"2683":4.319253921508789,"2684":9.198905944824219,"2685":-5.303143501281738,"2686":4.6913628578186035,"2687":-2.7541866302490234,"2688":-4.174455642700195,"2689":-2.5054588317871094,"2690":-3.021747589111328,"2691":-3.319617986679077,"2692":-2.2548511028289795,"2693":6.452215194702148,"2694":-5.036224365234375,"2695":6.50797700881958,"2696":6.525198936462402,"2697":-2.425074577331543,"2698":0.2214970737695694,"2699":0.14327414333820343,"2700":-9.184579849243164,"2701":-2.5300002098083496,"2702":7.5206122398376465,"2703":3.528109312057495,"2704":2.720618963241577,"2705":2.665818929672241,"2706":0.26410558819770813,"2707":2.7408766746520996,"2708":0.8121342062950134,"2709":1.9044686555862427,"2710":-0.9554842710494995,"2711":-3.321979522705078,"2712":0.41056084632873535,"2713":-0.3633652627468109,"2714":-4.79694938659668,"2715":1.9953372478485107,"2716":2.097285032272339,"2717":3.318556308746338,"2718":-0.7295944094657898,"2719":2.4347805976867676,"2720":3.4775538444519043,"2721":-0.36505642533302307,"2722":1.4276947975158691,"2723":-3.414055347442627,"2724":-0.1461423933506012,"2725":-2.0705606937408447,"2726":-0.008896459825336933,"2727":0.4306364059448242,"2728":-2.476632833480835,"2729":0.351314514875412,"2730":-1.042829155921936,"2731":1.171074390411377,"2732":0.9350796937942505,"2733":-0.6369556188583374,"2734":-0.5615625977516174,"2735":3.451272964477539,"2736":-2.3918802738189697,"2737":1.5698531866073608,"2738":-1.4933850765228271,"2739":-0.9085710048675537,"2740":0.32019931077957153,"2741":0.2858423888683319,"2742":-0.2782767713069916,"2743":-0.33740293979644775,"2744":0.011957354843616486,"2745":1.6773074865341187,"2746":0.8130746483802795,"2747":1.806073546409607,"2748":3.2917473316192627,"2749":-4.929531097412109,"2750":2.0819859504699707,"2751":0.8237953186035156,"2752":1.09428870677948,"2753":-1.1316535472869873,"2754":0.07713045924901962,"2755":-0.3211386799812317,"2756":-1.1646246910095215,"2757":0.40903985500335693,"2758":0.810639500617981,"2759":1.213653326034546,"2760":0.6350753307342529,"2761":2.0341594219207764,"2762":-1.5264458656311035,"2763":-0.254215270280838,"2764":0.9892756342887878,"2765":1.2142621278762817,"2766":0.4536800980567932,"2767":1.1944111585617065,"2768":-2.0807976722717285,"2769":-0.1746082454919815,"2770":-0.5380094647407532,"2771":3.0341038703918457,"2772":-1.8847614526748657,"2773":-1.3204761743545532,"2774":-0.00874263234436512,"2775":1.1855000257492065,"2776":-0.511581540107727,"2777":-0.9636488556861877,"2778":1.9523882865905762,"2779":-2.3234314918518066,"2780":-0.018446119502186775,"2781":1.1346312761306763,"2782":-0.08962860703468323,"2783":-2.0927083492279053,"2784":-1.4988359212875366,"2785":-0.7401631474494934,"2786":0.2820098102092743,"2787":-0.532229483127594,"2788":-2.0784599781036377,"2789":-0.4515986442565918,"2790":-1.0822961330413818,"2791":0.24723310768604279,"2792":-0.3602890074253082,"2793":-1.6816043853759766,"2794":-1.134767770767212,"2795":0.3330332040786743,"2796":2.2894887924194336,"2797":-0.39061474800109863,"2798":2.2962985038757324,"2799":-1.4788532257080078,"2800":2.8274621963500977,"2801":0.24813176691532135,"2802":5.548058986663818,"2803":-1.9793592691421509,"2804":0.23040971159934998,"2805":-3.606126070022583,"2806":0.4218631386756897,"2807":-0.11969837546348572,"2808":2.469543933868408,"2809":-0.00305891502648592,"2810":0.016958817839622498,"2811":-0.02438206598162651,"2812":-0.0010675510857254267,"2813":0.02037845179438591,"2814":-0.003770548850297928,"2815":0.0028710246551781893,"2816":0.0006429385393857956,"2817":-0.007200390566140413,"2818":-0.004543011542409658,"2819":0.02097206749022007,"2820":-0.0035511059686541557,"2821":0.006045076996088028,"2822":-0.017596276476979256,"2823":-0.024273108690977097,"2824":0.014766862615942955,"2825":0.010321911424398422,"2826":0.020215610042214394,"2827":-0.0020943647250533104,"2828":0.013050626963376999,"2829":0.011918624863028526,"2830":-0.016915934160351753,"2831":-0.004814120940864086,"2832":-0.017753155902028084,"2833":-0.005464568734169006,"2834":-0.0016441888874396682,"2835":0.016254115849733353,"2836":0.020998621359467506,"2837":-0.00021963837207295,"2838":0.02465207688510418,"2839":-0.01541998889297247,"2840":-0.008134735748171806,"2841":0.008432643488049507,"2842":0.020370211452245712,"2843":0.023799439892172813,"2844":0.010112568736076355,"2845":0.004293233621865511,"2846":0.02041209675371647,"2847":-0.020990118384361267,"2848":0.0187243539839983,"2849":0.008922092616558075,"2850":0.012856144458055496,"2851":-0.022756993770599365,"2852":-0.019078653305768967,"2853":0.024778947234153748,"2854":-0.02282845787703991,"2855":0.019758617505431175,"2856":0.009972105734050274,"2857":0.003049527993425727,"2858":0.01967153698205948,"2859":-0.017725644633173943,"2860":-0.021019762381911278,"2861":0.005712455604225397}},"hiddenLayers":[{"inputMatrix":{"rows":20,"columns":53,"weights":{"0":0.9726670384407043,"1":-3.325655937194824,"2":-0.7816239595413208,"3":1.8040214776992798,"4":-1.3033212423324585,"5":-1.7072027921676636,"6":0.23619350790977478,"7":0.18547989428043365,"8":-0.5996118783950806,"9":0.24364003539085388,"10":0.3110818862915039,"11":0.6103260517120361,"12":1.7729655504226685,"13":-0.8724262714385986,"14":-0.49915453791618347,"15":0.9962451457977295,"16":-0.8228500485420227,"17":-0.7299830913543701,"18":0.6702942252159119,"19":-2.9241721630096436,"20":2.532216787338257,"21":1.8728967905044556,"22":-0.8426344990730286,"23":1.4309844970703125,"24":-1.5723724365234375,"25":1.1150771379470825,"26":-0.4290788769721985,"27":1.420935034751892,"28":-1.2749050855636597,"29":0.1490044891834259,"30":-0.3271113634109497,"31":-0.5668506026268005,"32":1.2430247068405151,"33":3.539970636367798,"34":2.59462833404541,"35":-0.45235538482666016,"36":-1.5067737102508545,"37":0.24698111414909363,"38":-0.36854681372642517,"39":-1.411431074142456,"40":0.7203489542007446,"41":-2.2056031227111816,"42":-4.0289740562438965,"43":-0.49616295099258423,"44":-1.0415712594985962,"45":1.0488425493240356,"46":-1.635698676109314,"47":-0.7537589073181152,"48":0.5341840982437134,"49":0.44500479102134705,"50":0.26521819829940796,"51":-0.19749268889427185,"52":-0.8774013519287109,"53":-0.181952103972435,"54":0.5268568396568298,"55":-0.543470025062561,"56":0.7968793511390686,"57":0.5149179697036743,"58":0.7751352787017822,"59":2.455446720123291,"60":0.8009630441665649,"61":0.2962493896484375,"62":0.22052454948425293,"63":-0.14353787899017334,"64":0.6143679022789001,"65":1.7655202150344849,"66":0.9669207334518433,"67":1.3105629682540894,"68":0.6069416403770447,"69":0.38598498702049255,"70":1.504414439201355,"71":-0.4430239200592041,"72":-0.6810544729232788,"73":2.0248398780822754,"74":1.6338813304901123,"75":-1.9514826536178589,"76":-1.2909938097000122,"77":-1.6531198024749756,"78":1.2523612976074219,"79":-3.188239097595215,"80":-0.06454721093177795,"81":-0.8905616998672485,"82":0.19982674717903137,"83":0.5544353723526001,"84":-1.08526611328125,"85":0.29168835282325745,"86":0.4932490587234497,"87":1.0990400314331055,"88":-0.2554696798324585,"89":-1.8929873704910278,"90":0.7328675389289856,"91":-0.12737689912319183,"92":1.2811219692230225,"93":0.7140554189682007,"94":0.3225131630897522,"95":1.2757391929626465,"96":2.5989367961883545,"97":0.8611931204795837,"98":-1.4447808265686035,"99":-0.4226510524749756,"100":-0.2888077199459076,"101":-1.2259577512741089,"102":0.34415748715400696,"103":0.20734353363513947,"104":0.8990032076835632,"105":-3.388719081878662,"106":3.194321870803833,"107":-0.6628572940826416,"108":-1.4058079719543457,"109":0.37963244318962097,"110":-2.096818447113037,"111":-1.4791173934936523,"112":-0.8408429622650146,"113":0.9208347797393799,"114":0.8583946824073792,"115":-1.6109589338302612,"116":-1.7227482795715332,"117":3.7407760620117188,"118":-0.999961256980896,"119":-1.7141362428665161,"120":1.1766687631607056,"121":-1.4724786281585693,"122":-0.9255373477935791,"123":0.3666377365589142,"124":-1.7549227476119995,"125":-4.694427490234375,"126":1.185110330581665,"127":-1.0005722045898438,"128":-0.6847261786460876,"129":0.3354644477367401,"130":-2.406975269317627,"131":-0.09984946250915527,"132":-0.06163298711180687,"133":2.9182236194610596,"134":0.36187121272087097,"135":1.8198299407958984,"136":3.1855876445770264,"137":-0.2843867540359497,"138":0.09969043731689453,"139":0.25704723596572876,"140":0.9808865785598755,"141":0.16644157469272614,"142":-2.0023374557495117,"143":1.5306837558746338,"144":0.04094875603914261,"145":0.7686653733253479,"146":-2.6410024166107178,"147":1.230258822441101,"148":-0.1441003382205963,"149":-0.3342960476875305,"150":1.787065029144287,"151":-2.045822858810425,"152":-0.5004948377609253,"153":0.5187728404998779,"154":-0.14502014219760895,"155":-0.3800138235092163,"156":1.3112127780914307,"157":1.0118457078933716,"158":0.438087522983551,"159":2.770853042602539,"160":1.2455859184265137,"161":0.40675079822540283,"162":2.5986039638519287,"163":0.5579743981361389,"164":1.1375197172164917,"165":0.8972836136817932,"166":0.7771478295326233,"167":-1.2532126903533936,"168":1.0276106595993042,"169":-1.372824788093567,"170":-0.6160914897918701,"171":0.06924785673618317,"172":0.16001462936401367,"173":0.15831130743026733,"174":0.027757342904806137,"175":0.9766761064529419,"176":4.277299880981445,"177":-1.0999205112457275,"178":-0.12112490832805634,"179":-1.9762991666793823,"180":0.26706022024154663,"181":0.5527902245521545,"182":-1.1970226764678955,"183":-2.664947986602783,"184":1.3254191875457764,"185":-0.999618411064148,"186":0.9715861082077026,"187":-1.303551435470581,"188":-1.428802251815796,"189":0.7749651670455933,"190":0.18543779850006104,"191":-0.4990265667438507,"192":-0.8559591770172119,"193":-0.6996760964393616,"194":-3.382607936859131,"195":-0.034170232713222504,"196":0.3600006401538849,"197":-0.15072603523731232,"198":2.0313947200775146,"199":0.2848779559135437,"200":0.28976428508758545,"201":0.49866360425949097,"202":-1.7693686485290527,"203":1.6331461668014526,"204":1.4377126693725586,"205":-1.940852403640747,"206":-0.17333242297172546,"207":0.20566119253635406,"208":1.3584359884262085,"209":-0.46833041310310364,"210":2.9016284942626953,"211":-0.6577247977256775,"212":-1.1472458839416504,"213":0.8695432543754578,"214":0.3531588315963745,"215":-0.33275261521339417,"216":-0.9301356673240662,"217":-2.9244158267974854,"218":-2.2326977252960205,"219":-2.098151683807373,"220":0.06267932057380676,"221":-1.075521469116211,"222":-0.24614597856998444,"223":-1.5658891201019287,"224":1.692846417427063,"225":2.448336124420166,"226":1.5542317628860474,"227":0.30689653754234314,"228":0.46130722761154175,"229":1.304486870765686,"230":-0.17770813405513763,"231":0.024033842608332634,"232":-0.4517515003681183,"233":-0.9136459231376648,"234":-0.4822608232498169,"235":0.882867693901062,"236":0.17663857340812683,"237":-0.14186625182628632,"238":0.9316630363464355,"239":0.2519451379776001,"240":1.8821685314178467,"241":0.6751987934112549,"242":-0.3942282497882843,"243":-0.332053005695343,"244":0.9662610292434692,"245":-0.5146405696868896,"246":-1.9119608402252197,"247":-0.7791712284088135,"248":-0.639569103717804,"249":0.18824584782123566,"250":0.45562878251075745,"251":-2.1546292304992676,"252":2.306511878967285,"253":-2.020702362060547,"254":-3.1813480854034424,"255":-0.16079553961753845,"256":-0.3325648605823517,"257":-1.272678256034851,"258":0.2524203956127167,"259":2.190500497817993,"260":-2.3965394496917725,"261":-1.0343540906906128,"262":-1.0646179914474487,"263":0.5644819140434265,"264":-1.6664289236068726,"265":-0.9624532461166382,"266":-1.3244754076004028,"267":-0.5283438563346863,"268":-0.16848555207252502,"269":-1.6776394844055176,"270":-1.8693710565567017,"271":-1.8434456586837769,"272":-0.22842785716056824,"273":-1.4313536882400513,"274":0.19513940811157227,"275":0.4361232817173004,"276":0.7430194020271301,"277":-0.8708136081695557,"278":0.2184801697731018,"279":-0.4883826673030853,"280":0.8500835299491882,"281":-0.3732643127441406,"282":-0.7752479314804077,"283":1.0078436136245728,"284":0.14145439863204956,"285":2.2793848514556885,"286":-0.9648297429084778,"287":0.15287020802497864,"288":-0.9191083312034607,"289":-0.7542821764945984,"290":-0.930759072303772,"291":0.7876191139221191,"292":2.439812183380127,"293":0.18461968004703522,"294":0.02548922412097454,"295":-0.6365373134613037,"296":0.8987342715263367,"297":-1.4310717582702637,"298":1.6160495281219482,"299":-0.8800200819969177,"300":-1.4142147302627563,"301":-0.1250801682472229,"302":0.38270998001098633,"303":1.507131814956665,"304":-2.881227970123291,"305":1.43971848487854,"306":-0.18364647030830383,"307":-2.8588008880615234,"308":-0.8798596858978271,"309":-2.2760040760040283,"310":1.5893073081970215,"311":-1.0904275178909302,"312":1.0599678754806519,"313":0.06732235103845596,"314":1.274412989616394,"315":-1.3033381700515747,"316":-0.8044775724411011,"317":1.0142672061920166,"318":0.7854374647140503,"319":-0.8765351176261902,"320":-2.521690607070923,"321":-0.32652923464775085,"322":1.6901501417160034,"323":0.8422263264656067,"324":2.0807228088378906,"325":-1.2304092645645142,"326":-1.2382034063339233,"327":0.3601859211921692,"328":1.9854273796081543,"329":0.3929060399532318,"330":2.278881788253784,"331":0.30342042446136475,"332":-0.2870839536190033,"333":-0.5073645114898682,"334":0.5495049953460693,"335":1.6698009967803955,"336":1.140790581703186,"337":-0.24615244567394257,"338":-1.5773906707763672,"339":1.7644983530044556,"340":-0.19075191020965576,"341":0.6373429298400879,"342":-0.6552058458328247,"343":0.7502842545509338,"344":0.5813376903533936,"345":2.105189085006714,"346":-2.9764914512634277,"347":-0.7340304851531982,"348":1.0527863502502441,"349":2.17496657371521,"350":1.5815956592559814,"351":-0.8145045638084412,"352":2.144124984741211,"353":0.31661662459373474,"354":0.39231613278388977,"355":1.595064401626587,"356":1.3313372135162354,"357":0.5063604116439819,"358":0.30113428831100464,"359":1.1192644834518433,"360":-0.8817872405052185,"361":-1.0719794034957886,"362":1.3616570234298706,"363":0.23118405044078827,"364":-1.7120736837387085,"365":0.3312039077281952,"366":-0.6885020136833191,"367":1.2451423406600952,"368":-0.2121768295764923,"369":-1.9677656888961792,"370":-0.9230543375015259,"371":0.9219006896018982,"372":1.7193772792816162,"373":-1.4539189338684082,"374":-1.241573452949524,"375":2.8180222511291504,"376":1.201319932937622,"377":2.8910858631134033,"378":1.4873303174972534,"379":0.04601750150322914,"380":1.6048933267593384,"381":0.9879966974258423,"382":-1.3911840915679932,"383":0.5044745206832886,"384":2.272726535797119,"385":-0.18767473101615906,"386":0.8200035691261292,"387":1.4753105640411377,"388":0.592359721660614,"389":-3.121293067932129,"390":0.4058888256549835,"391":-0.18158671259880066,"392":2.821611166000366,"393":-0.4124795198440552,"394":-0.3851371705532074,"395":-0.9574639797210693,"396":-1.026170253753662,"397":-1.326065182685852,"398":0.12246567010879517,"399":-1.2256234884262085,"400":-0.013941445387899876,"401":-0.6609971523284912,"402":0.3468754291534424,"403":0.959663450717926,"404":-3.9379019737243652,"405":-0.37789738178253174,"406":-0.3859436810016632,"407":-0.26665690541267395,"408":1.4442754983901978,"409":0.4453151822090149,"410":0.7275453805923462,"411":-0.47543421387672424,"412":1.3128337860107422,"413":-1.4120912551879883,"414":-0.3939628303050995,"415":-0.815494954586029,"416":0.051909882575273514,"417":-0.707918643951416,"418":1.1937190294265747,"419":-0.21654938161373138,"420":3.3954880237579346,"421":-1.5573228597640991,"422":-1.3685741424560547,"423":-0.5687514543533325,"424":0.3134084939956665,"425":0.2163093537092209,"426":3.249117136001587,"427":-0.7680540084838867,"428":0.6928967833518982,"429":2.3716440200805664,"430":-0.8187452554702759,"431":0.02541109174489975,"432":0.5846061110496521,"433":-1.5229175090789795,"434":1.149428367614746,"435":-2.3524060249328613,"436":-3.9345617294311523,"437":2.190821886062622,"438":-0.22008876502513885,"439":-1.6323035955429077,"440":-2.0268197059631348,"441":0.5884668827056885,"442":0.11967255175113678,"443":-2.829165458679199,"444":-2.153444766998291,"445":1.0383919477462769,"446":2.1828293800354004,"447":1.361928105354309,"448":0.5224921107292175,"449":-2.678095579147339,"450":3.5560312271118164,"451":-2.234769105911255,"452":-0.19889520108699799,"453":0.936366081237793,"454":0.5706413388252258,"455":0.8244823813438416,"456":1.2398924827575684,"457":-2.5785133838653564,"458":0.5587624311447144,"459":0.3315103054046631,"460":2.2562150955200195,"461":-0.5434184074401855,"462":-1.7593729496002197,"463":1.519380807876587,"464":2.4098331928253174,"465":-0.3567464351654053,"466":0.4282044768333435,"467":-0.8615829944610596,"468":0.7017967700958252,"469":0.0341145284473896,"470":1.409236192703247,"471":1.807808756828308,"472":3.0755324363708496,"473":0.8166275024414062,"474":0.44876858592033386,"475":-1.493075966835022,"476":2.518580675125122,"477":-0.8736668825149536,"478":-1.9915496110916138,"479":-1.9134985208511353,"480":-1.0569204092025757,"481":-0.5250080823898315,"482":0.888197660446167,"483":-3.6674797534942627,"484":0.6235772371292114,"485":0.02548416703939438,"486":0.6724696159362793,"487":0.09458958357572556,"488":0.6013382077217102,"489":0.5922929048538208,"490":-4.191801071166992,"491":0.0841139629483223,"492":0.3346453607082367,"493":0.3007584512233734,"494":-1.789931297302246,"495":0.6133651733398438,"496":1.674835205078125,"497":-0.12796466052532196,"498":0.7692841291427612,"499":-0.9386637806892395,"500":-0.9538995623588562,"501":0.26792240142822266,"502":0.04098252207040787,"503":-1.4652178287506104,"504":1.9913047552108765,"505":-2.493229866027832,"506":1.9637292623519897,"507":1.2917803525924683,"508":0.9531038999557495,"509":-2.605285406112671,"510":4.061367034912109,"511":1.3389893770217896,"512":0.8204486966133118,"513":1.8256689310073853,"514":-0.6165158748626709,"515":-1.581307291984558,"516":-0.20497317612171173,"517":1.2346155643463135,"518":1.8851962089538574,"519":-1.6890910863876343,"520":0.17320896685123444,"521":0.9195348024368286,"522":-0.590819239616394,"523":2.341108560562134,"524":-2.252344846725464,"525":-0.631239116191864,"526":-0.4512867331504822,"527":-1.9081151485443115,"528":0.21540136635303497,"529":1.1102712154388428,"530":-1.66056489944458,"531":1.8043233156204224,"532":1.8524665832519531,"533":-0.4293060898780823,"534":0.33064547181129456,"535":0.6507759690284729,"536":0.7009478211402893,"537":-0.010822148993611336,"538":-1.3737547397613525,"539":1.3190642595291138,"540":0.0751715898513794,"541":-0.6910033822059631,"542":-0.15322664380073547,"543":-0.5075647234916687,"544":-0.6509785652160645,"545":-0.1258048564195633,"546":-1.608097791671753,"547":-1.4965007305145264,"548":-0.6275134086608887,"549":1.9089757204055786,"550":-1.5553675889968872,"551":-1.3865666389465332,"552":0.13795126974582672,"553":0.32943376898765564,"554":2.461418628692627,"555":-1.0912567377090454,"556":0.6648132801055908,"557":-1.4885421991348267,"558":-1.5220673084259033,"559":-0.6471719145774841,"560":-1.1974668502807617,"561":0.8900328278541565,"562":2.0910539627075195,"563":-2.164227247238159,"564":-0.6863767504692078,"565":1.484487771987915,"566":0.504558265209198,"567":-0.6359408497810364,"568":1.1852450370788574,"569":-0.6737032532691956,"570":0.9785208702087402,"571":1.0771974325180054,"572":1.0796914100646973,"573":-2.3335554599761963,"574":1.0638456344604492,"575":-1.430397391319275,"576":0.007096531800925732,"577":-0.7275343537330627,"578":0.6396409869194031,"579":-1.397788405418396,"580":1.4802013635635376,"581":1.3168295621871948,"582":2.4761579036712646,"583":0.7594599723815918,"584":1.2959152460098267,"585":-2.4876134395599365,"586":-1.1373878717422485,"587":-0.67989581823349,"588":-2.4907491207122803,"589":1.6142747402191162,"590":2.1748554706573486,"591":1.2571995258331299,"592":0.6586542129516602,"593":-1.7148308753967285,"594":-0.24095474183559418,"595":1.157989501953125,"596":2.110039710998535,"597":0.7404165267944336,"598":0.9498167634010315,"599":0.7523009777069092,"600":1.0344831943511963,"601":1.2331851720809937,"602":1.3494120836257935,"603":-0.572376549243927,"604":-1.773884654045105,"605":-1.8609267473220825,"606":-1.5257136821746826,"607":-4.0442070960998535,"608":-2.3314037322998047,"609":-1.2567932605743408,"610":-1.2709723711013794,"611":2.069676160812378,"612":-0.6322423815727234,"613":-1.859161376953125,"614":0.6698395609855652,"615":0.6639993190765381,"616":1.8407161235809326,"617":-0.7457848191261292,"618":-0.07251664251089096,"619":-1.7418651580810547,"620":1.3739899396896362,"621":1.1095452308654785,"622":-2.2700254917144775,"623":0.5896354913711548,"624":-1.4751427173614502,"625":-0.996160089969635,"626":1.0290712118148804,"627":0.585959255695343,"628":-0.36538031697273254,"629":-1.0175646543502808,"630":-0.2827422320842743,"631":1.674761414527893,"632":-0.9285262823104858,"633":3.3191113471984863,"634":1.4052913188934326,"635":-2.4508354663848877,"636":0.46250540018081665,"637":2.873065948486328,"638":-0.4507579505443573,"639":0.7205317616462708,"640":-3.900766134262085,"641":1.2824431657791138,"642":0.718414843082428,"643":0.3007177412509918,"644":-0.5603846311569214,"645":-0.873114824295044,"646":-0.018285784870386124,"647":0.4920583665370941,"648":0.1846301555633545,"649":-0.8046087026596069,"650":2.218571662902832,"651":0.3638531565666199,"652":3.215794086456299,"653":2.345033884048462,"654":0.7852710485458374,"655":0.32212817668914795,"656":-0.4071860909461975,"657":0.6750537157058716,"658":-1.2722610235214233,"659":0.35125383734703064,"660":-0.14935868978500366,"661":-0.8952929377555847,"662":-1.1125733852386475,"663":-0.8417469263076782,"664":-3.430436134338379,"665":-0.3496854603290558,"666":0.21878814697265625,"667":2.9157941341400146,"668":-0.07239756733179092,"669":0.37256452441215515,"670":1.569201111793518,"671":-0.09994614124298096,"672":0.12358855456113815,"673":-1.8022264242172241,"674":0.71725994348526,"675":0.7510493993759155,"676":0.8276512622833252,"677":-0.12350519001483917,"678":-0.8788185119628906,"679":2.3428919315338135,"680":1.2244592905044556,"681":1.3292654752731323,"682":-0.02268013171851635,"683":1.2524938583374023,"684":-1.4919331073760986,"685":2.0132715702056885,"686":-1.4423413276672363,"687":-0.20442558825016022,"688":-0.9847330451011658,"689":-1.2460633516311646,"690":-0.7451110482215881,"691":-0.44632357358932495,"692":-1.2633929252624512,"693":-0.8251286149024963,"694":-0.4018038213253021,"695":1.4160101413726807,"696":1.3162059783935547,"697":-0.3272237181663513,"698":2.197913885116577,"699":1.9288986921310425,"700":-0.8850948214530945,"701":1.6432143449783325,"702":-1.1926099061965942,"703":0.45788267254829407,"704":0.9561569690704346,"705":0.4888018071651459,"706":1.2024223804473877,"707":1.9574918746948242,"708":1.193124532699585,"709":-0.04965668171644211,"710":3.7789816856384277,"711":-0.2960354685783386,"712":1.93475341796875,"713":3.0932841300964355,"714":1.1978479623794556,"715":-1.9482755661010742,"716":-0.9390465021133423,"717":-0.9697502255439758,"718":0.05081518366932869,"719":-1.8630865812301636,"720":-0.16063304245471954,"721":-0.2313476949930191,"722":-2.4931700229644775,"723":1.6777571439743042,"724":-1.3925707340240479,"725":-1.645313024520874,"726":-1.364967703819275,"727":0.13392731547355652,"728":-0.2624185383319855,"729":1.9236760139465332,"730":-1.3237553834915161,"731":-0.8764072060585022,"732":0.46252134442329407,"733":1.5821516513824463,"734":-1.1004823446273804,"735":-0.643220841884613,"736":2.557046413421631,"737":-1.689899206161499,"738":2.583254814147949,"739":-0.6521347165107727,"740":-2.193591594696045,"741":-1.9743596315383911,"742":1.083998441696167,"743":0.2143770456314087,"744":0.42259129881858826,"745":-1.811229944229126,"746":0.3976091146469116,"747":2.1413285732269287,"748":1.4447524547576904,"749":-0.41145190596580505,"750":0.12823599576950073,"751":-0.801436722278595,"752":0.3728581368923187,"753":-1.1024675369262695,"754":-0.056762050837278366,"755":2.0916898250579834,"756":-1.7830265760421753,"757":-0.8107419610023499,"758":0.48325061798095703,"759":0.7680992484092712,"760":-0.29488712549209595,"761":0.2235783338546753,"762":-0.26858872175216675,"763":3.549504518508911,"764":-2.7283854484558105,"765":-0.6345314383506775,"766":0.1466565728187561,"767":-1.023378610610962,"768":0.492377907037735,"769":0.2968328297138214,"770":1.6032655239105225,"771":1.359766960144043,"772":0.38161391019821167,"773":-0.05955685302615166,"774":3.9176340103149414,"775":0.5817409157752991,"776":-0.5503300428390503,"777":1.5409791469573975,"778":-1.396793007850647,"779":0.08003105968236923,"780":0.9236447215080261,"781":-0.5747436285018921,"782":-3.0517983436584473,"783":0.9549084901809692,"784":-0.0077467081137001514,"785":0.8739248514175415,"786":0.12147819995880127,"787":2.5585453510284424,"788":-0.2989038825035095,"789":2.346895933151245,"790":-0.5674042105674744,"791":3.287015438079834,"792":-0.6771389842033386,"793":-1.7236659526824951,"794":2.0977725982666016,"795":-0.6666679382324219,"796":-2.7315282821655273,"797":0.6126000881195068,"798":0.06941697001457214,"799":-0.023113666102290154,"800":-1.1278502941131592,"801":-1.3622487783432007,"802":-0.8414152264595032,"803":0.20607377588748932,"804":0.9010571837425232,"805":-1.8287922143936157,"806":-0.9997191429138184,"807":-1.682774543762207,"808":-0.7153388857841492,"809":0.5620620846748352,"810":-0.059019286185503006,"811":-0.17300023138523102,"812":-0.9613294005393982,"813":2.273040533065796,"814":1.6366864442825317,"815":1.8237926959991455,"816":0.0015657332260161638,"817":1.1329156160354614,"818":0.4666171371936798,"819":-0.7239644527435303,"820":0.9954059720039368,"821":1.6591166257858276,"822":0.9451891183853149,"823":0.2742367088794708,"824":1.9196131229400635,"825":2.5051496028900146,"826":0.06343121081590652,"827":1.3162785768508911,"828":2.866471290588379,"829":1.5450419187545776,"830":1.0760080814361572,"831":-0.75137859582901,"832":-1.6190840005874634,"833":1.2998753786087036,"834":-0.179909810423851,"835":1.1560964584350586,"836":-1.3934495449066162,"837":-1.552605390548706,"838":-0.47300663590431213,"839":-3.0798845291137695,"840":1.4321082830429077,"841":-2.3072776794433594,"842":-0.6245697140693665,"843":0.17303210496902466,"844":-1.6609610319137573,"845":0.2074728161096573,"846":1.2106387615203857,"847":1.451596736907959,"848":-2.199964761734009,"849":-0.510100781917572,"850":-0.49007275700569153,"851":-0.8995711207389832,"852":-1.3061772584915161,"853":-0.6309686899185181,"854":0.28545865416526794,"855":0.12891951203346252,"856":0.8228126168251038,"857":-2.046630382537842,"858":-0.1489773541688919,"859":0.4101284146308899,"860":2.873867988586426,"861":-1.1468645334243774,"862":-0.10732720047235489,"863":0.19794213771820068,"864":0.09471829980611801,"865":-0.6457868218421936,"866":-0.5381436944007874,"867":-0.723315417766571,"868":0.6947570443153381,"869":1.8089234828948975,"870":-0.21687224507331848,"871":-1.6034115552902222,"872":-2.600102424621582,"873":1.945711374282837,"874":-2.2053823471069336,"875":0.40556180477142334,"876":-2.772379159927368,"877":-0.7483786940574646,"878":-0.5841143727302551,"879":-2.515610694885254,"880":0.3218953609466553,"881":-0.599785566329956,"882":-0.882739782333374,"883":-0.7521807551383972,"884":-1.3896114826202393,"885":-1.3120958805084229,"886":0.10638903826475143,"887":0.2038799226284027,"888":0.03758765384554863,"889":1.2443536520004272,"890":-2.228365659713745,"891":1.4882904291152954,"892":2.450101613998413,"893":-0.9755801558494568,"894":0.7683901190757751,"895":-0.0366940051317215,"896":-1.8883439302444458,"897":-0.40350955724716187,"898":-0.12526234984397888,"899":0.17497903108596802,"900":-2.0773699283599854,"901":-1.0162410736083984,"902":2.0084965229034424,"903":-1.5219123363494873,"904":1.6011196374893188,"905":1.7697235345840454,"906":0.402852326631546,"907":0.2226637452840805,"908":0.49689504504203796,"909":0.3333001434803009,"910":1.3085178136825562,"911":-0.21515072882175446,"912":-2.393787384033203,"913":1.5554932355880737,"914":1.004696011543274,"915":1.2965022325515747,"916":0.9749292135238647,"917":-2.3562707901000977,"918":-2.2869937419891357,"919":-0.9207748174667358,"920":-1.0631978511810303,"921":1.5455738306045532,"922":1.9157216548919678,"923":-1.732923150062561,"924":-1.783894419670105,"925":0.2542857527732849,"926":0.24482066929340363,